{"learner":{"attributes":{"best_iteration":"2","best_score":"0.49775461365936113","scikit_learn":"{\"_estimator_type\": \"classifier\"}"},"feature_names":["duration","src_bytes","dst_bytes","land","wrong_fragment","urgent","hot","num_failed_logins","logged_in","num_compromised","root_shell","su_attempted","num_root","num_file_creations","num_shells","num_access_files","num_outbound_cmds","is_host_login","is_guest_login","count","srv_count","serror_rate","srv_serror_rate","rerror_rate","srv_rerror_rate","same_srv_rate","diff_srv_rate","srv_diff_host_rate","dst_host_count","dst_host_srv_count","dst_host_same_srv_rate","dst_host_diff_srv_rate","dst_host_same_src_port_rate","dst_host_srv_diff_host_rate","dst_host_serror_rate","dst_host_srv_serror_rate","dst_host_rerror_rate","dst_host_srv_rerror_rate","protocol_type_0","protocol_type_1","protocol_type_2","service_0","service_1","service_2","service_3","service_4","service_5","service_6","service_7","service_8","service_9","service_10","service_11","service_12","service_13","service_14","service_15","service_16","service_17","service_18","service_19","service_20","service_21","service_22","service_23","service_24","service_25","service_26","service_27","service_28","service_29","service_30","service_31","service_32","service_33","service_34","service_35","service_36","service_37","service_38","service_39","service_40","service_41","service_42","service_43","service_44","service_45","service_46","service_47","service_48","service_49","service_50","service_51","service_52","service_53","service_54","service_55","service_56","service_57","service_58","service_59","service_60","service_61","service_62","service_63","service_64","service_65","service_66","service_67","service_68","service_69","flag_0","flag_1","flag_2","flag_3","flag_4","flag_5","flag_6","flag_7","flag_8","flag_9","flag_10"],"feature_types":["float","float","float","float","float","float","float","float","float","float","float","float","float","float","float","float","float","float","float","float","float","float","float","float","float","float","float","float","float","float","float","float","float","float","float","float","float","float","i","i","i","i","i","i","i","i","i","i","i","i","i","i","i","i","i","i","i","i","i","i","i","i","i","i","i","i","i","i","i","i","i","i","i","i","i","i","i","i","i","i","i","i","i","i","i","i","i","i","i","i","i","i","i","i","i","i","i","i","i","i","i","i","i","i","i","i","i","i","i","i","i","i","i","i","i","i","i","i","i","i","i","i"],"gradient_booster":{"model":{"gbtree_model_param":{"num_parallel_tree":"1","num_trees":"13"},"iteration_indptr":[0,1,2,3,4,5,6,7,8,9,10,11,12,13],"tree_info":[0,0,0,0,0,0,0,0,0,0,0,0,0],"trees":[{"base_weights":[-2.2116283E-4,1.8174853E0,-1.5682336E0,2.0149086E0,-6.391806E-1,-1.7309628E0,1.8953917E0,2.0807228E0,-1.1231179E0,2.0893834E0,-1.8088837E0,-1.8154967E0,2.590134E-1,-5.495565E-1,6.435973E-1,2.107257E0,-1.6782577E0,-1.588796E0,1.6269525E0,-4.5392534E-1,6.4249563E-1,-1.8602761E0,5.8429223E-1,-1.8408582E0,-7.695871E-1,-8.9463454E-1,6.3953483E-1,2.1104336E0,-1.0766944E0,5.151118E-1,-5.5492485E-1,-1.7223715E0,2.803766E-1,-4.4856462E-1,2.0076118E0,-5.6008774E-1,1.9058138E-1,-1.8570542E0,-1.0550046E0,-1.8504183E0,1.2394345E0,1.9390242E-1,-1.5998831E0,6.3385886E-1,-4.9861726E-1,4.4554016E-1,-5.122259E-1,-5.394833E-1,-2.190621E-1,4.592611E-1,-4.1078034E-1,8.992342E-2,6.177771E-1,-5.591871E-1,-4.927015E-1,-5.1155335E-1,5.9414303E-1,-5.56356E-1,-1.7745161E-1,-4.7568837E-1,6.349452E-1,5.1917994E-1,-5.404919E-1,-5.488062E-1,-3.0514764E-2],"categories":[],"categories_nodes":[],"categories_segments":[],"categories_sizes":[],"default_left":[0,0,0,0,0,0,0,0,0,0,0,0,0,0,0,0,0,0,0,0,0,0,0,0,0,0,0,0,0,0,0,0,0,0,0,0,0,0,0,0,0,0,0,0,0,0,0,0,0,0,0,0,0,0,0,0,0,0,0,0,0,0,0,0,0],"id":0,"left_children":[1,3,5,7,9,11,13,15,17,19,21,23,25,-1,-1,27,29,31,33,-1,-1,35,-1,37,39,41,-1,43,45,-1,-1,47,49,-1,51,-1,-1,53,55,57,59,61,63,-1,-1,-1,-1,-1,-1,-1,-1,-1,-1,-1,-1,-1,-1,-1,-1,-1,-1,-1,-1,-1,-1],"loss_changes":[8.933929E4,7.0419375E3,9.488301E3,2.777461E3,3.45256E3,2.7044023E3,7.0784814E2,1.3162656E3,3.5691327E2,6.438025E1,1.4974365E2,4.0758203E2,1.4189083E3,0E0,0E0,1.3447266E2,5.7216156E1,5.968567E1,5.120717E1,0E0,0E0,1.3646973E1,0E0,1.8963672E2,7.9865393E2,3.124194E2,0E0,1.2316406E2,2.4654888E1,0E0,0E0,1.5364075E1,3.6494305E1,0E0,2.6091766E0,0E0,0E0,1.8792969E1,6.0786194E2,1.3647461E-1,3.227023E2,4.9601767E2,8.466785E1,0E0,0E0,0E0,0E0,0E0,0E0,0E0,0E0,0E0,0E0,0E0,0E0,0E0,0E0,0E0,0E0,0E0,0E0,0E0,0E0,0E0,0E0],"parents":[2147483647,0,0,1,1,2,2,3,3,4,4,5,5,6,6,7,7,8,8,9,9,10,10,11,11,12,12,15,15,16,16,17,17,18,18,21,21,23,23,24,24,25,25,27,27,28,28,31,31,32,32,34,34,37,37,38,38,39,39,40,40,41,41,42,42],"right_children":[2,4,6,8,10,12,14,16,18,20,22,24,26,-1,-1,28,30,32,34,-1,-1,36,-1,38,40,42,-1,44,46,-1,-1,48,50,-1,52,-1,-1,54,56,58,60,62,64,-1,-1,-1,-1,-1,-1,-1,-1,-1,-1,-1,-1,-1,-1,-1,-1,-1,-1,-1,-1,-1,-1],"split_conditions":[2.17397E-8,1E0,1E0,3.053581E-9,3.1E-1,1.2987013E-2,5.652322E-8,1E0,9E-2,8.627451E-2,1.8E-1,1.1E-1,6.865397E-6,-5.495565E-1,6.435973E-1,1E0,5.0725966E-9,5.6567586E-7,1.1E-1,-4.5392534E-1,6.4249563E-1,1.1E-1,5.8429223E-1,1E0,1E0,1.8644542E-4,6.3953483E-1,1E0,5.0725966E-9,5.151118E-1,-5.5492485E-1,5.8708414E-3,7.450981E-2,-4.4856462E-1,2.9E-1,-5.6008774E-1,1.9058138E-1,1E0,8.840811E-8,2.0652715E-6,7.9E-1,5.4901963E-1,1.0720611E-3,6.3385886E-1,-4.9861726E-1,4.4554016E-1,-5.122259E-1,-5.394833E-1,-2.190621E-1,4.592611E-1,-4.1078034E-1,8.992342E-2,6.177771E-1,-5.591871E-1,-4.927015E-1,-5.1155335E-1,5.9414303E-1,-5.56356E-1,-1.7745161E-1,-4.7568837E-1,6.349452E-1,5.1917994E-1,-5.404919E-1,-5.488062E-1,-3.0514764E-2],"split_indices":[1,65,56,2,30,6,1,8,36,28,35,33,1,0,0,53,1,2,31,0,0,26,0,90,61,0,0,117,1,0,0,19,28,0,31,0,0,32,1,1,30,29,0,0,0,0,0,0,0,0,0,0,0,0,0,0,0,0,0,0,0,0,0,0,0],"split_type":[0,0,0,0,0,0,0,0,0,0,0,0,0,0,0,0,0,0,0,0,0,0,0,0,0,0,0,0,0,0,0,0,0,0,0,0,0,0,0,0,0,0,0,0,0,0,0,0,0,0,0,0,0,0,0,0,0,0,0,0,0,0,0,0,0],"sum_hessian":[3.1343068E4,1.4515698E4,1.6827371E4,1.343612E4,1.0795771E3,1.6072737E4,7.5463416E2,1.3160441E4,2.7567908E2,3.23699E2,7.558782E2,1.5417875E4,6.5486224E2,4.702468E1,7.076095E2,1.3068632E4,9.181009E1,2.3611864E2,3.9560444E1,4.229733E0,3.1946927E2,7.461747E2,9.7035055E0,1.5052128E4,3.6574753E2,4.0555676E2,2.4930545E2,1.3055942E4,1.2689199E1,3.9809253E0,8.782916E1,2.2044374E2,1.5674893E1,3.9809253E0,3.557952E1,7.4443304E2,1.7416549E0,1.474684E4,3.052872E2,2.3786029E2,1.2788722E2,1.5973463E2,2.4582214E2,1.304798E4,7.9618506E0,2.2392704E0,1.0449929E1,2.0402242E2,1.6421316E1,8.957082E0,6.7178116E0,1.2440392E0,3.433548E1,1.4280077E4,4.667635E2,2.5179353E2,5.3493683E1,2.3661624E2,1.2440392E0,3.0105747E1,9.778148E1,9.0317245E1,6.941739E1,2.129795E2,3.2842632E1],"tree_param":{"num_deleted":"0","num_feature":"122","num_nodes":"65","size_leaf_vector":"1"}},{"base_weights":[-1.0420852E-2,1.3560454E0,-1.2483052E0,1.5000627E0,-5.083655E-1,-1.3799094E0,1.4171779E0,1.5482934E0,-8.8029397E-1,1.5586004E0,-1.4446235E0,-1.4492003E0,1.8791404E-1,-4.4032535E-1,4.80284E-1,1.5675997E0,-1.3342588E0,-1.2504027E0,1.2102365E0,-3.707993E-1,4.7961196E-1,-1.4875813E0,4.442006E-1,-1.4865386E0,-9.6495634E-1,-6.987171E-1,1.5905484E0,1.5758756E0,3.6611015E-1,4.0177026E-1,-4.4431934E-1,-1.3606092E0,2.0278646E-1,-3.669489E-1,1.5019815E0,-1.493614E0,1.5373035E-1,-1.4869287E0,4.7473878E-1,-1.3091403E0,3.5538378E-1,1.3564557E-1,-1.2565022E0,6.616795E-1,4.7967798E-1,4.773131E-1,3.3501622E-1,-5.415129E-1,4.5312586E-1,-4.2046893E-1,-1.2322478E-2,4.192067E-1,-3.0369577E-1,7.4757405E-2,4.6234658E-1,-4.4853416E-1,-1.2779714E-1,-4.4618967E-1,4.3178377E-1,-4.4959483E-1,4.2117617E-1,-3.4227088E-1,4.6393833E-1,-3.1891778E-1,4.9742857E-1,-4.3907392E-1,-2.9479584E-2,-1.5686585E-2,2.9957625E-1],"categories":[],"categories_nodes":[],"categories_segments":[],"categories_sizes":[],"default_left":[0,0,0,0,0,0,0,0,0,0,0,0,0,0,0,0,0,0,0,0,0,0,0,0,0,0,0,0,0,0,0,0,0,0,0,0,0,0,0,0,0,0,0,0,0,0,0,0,0,0,0,0,0,0,0,0,0,0,0,0,0,0,0,0,0,0,0,0,0],"id":1,"left_children":[1,3,5,7,9,11,13,15,17,19,21,23,25,-1,-1,27,29,31,33,-1,-1,35,-1,37,39,41,43,45,47,-1,-1,49,51,-1,53,55,-1,57,-1,59,61,63,65,67,-1,-1,-1,-1,-1,-1,-1,-1,-1,-1,-1,-1,-1,-1,-1,-1,-1,-1,-1,-1,-1,-1,-1,-1,-1],"loss_changes":[4.865346E4,3.6716602E3,5.295908E3,1.4584121E3,1.9008528E3,1.5626719E3,3.790592E2,6.9438086E2,1.9702003E2,3.6309998E1,8.711975E1,2.4760156E2,7.59226E2,0E0,0E0,1.2230078E2,3.4678543E1,3.473529E1,2.9179932E1,0E0,0E0,8.806641E0,0E0,1.766211E1,4.4983466E2,1.7432085E2,7.8167725E-1,8.369531E1,2.1599077E2,0E0,0E0,1.0757477E1,2.4693995E1,0E0,1.3257904E0,4.2749023E-1,0E0,1.5986328E1,0E0,4.0549854E2,3.6756924E2,2.7702457E2,5.3669678E1,9.708942E-1,0E0,0E0,0E0,0E0,0E0,0E0,0E0,0E0,0E0,0E0,0E0,0E0,0E0,0E0,0E0,0E0,0E0,0E0,0E0,0E0,0E0,0E0,0E0,0E0,0E0],"parents":[2147483647,0,0,1,1,2,2,3,3,4,4,5,5,6,6,7,7,8,8,9,9,10,10,11,11,12,12,15,15,16,16,17,17,18,18,21,21,23,23,24,24,25,25,26,26,27,27,28,28,31,31,32,32,34,34,35,35,37,37,39,39,40,40,41,41,42,42,43,43],"right_children":[2,4,6,8,10,12,14,16,18,20,22,24,26,-1,-1,28,30,32,34,-1,-1,36,-1,38,40,42,44,46,48,-1,-1,50,52,-1,54,56,-1,58,-1,60,62,64,66,68,-1,-1,-1,-1,-1,-1,-1,-1,-1,-1,-1,-1,-1,-1,-1,-1,-1,-1,-1,-1,-1,-1,-1,-1,-1],"split_conditions":[2.17397E-8,1E0,1E0,3.053581E-9,3.1E-1,1.2987013E-2,5.652322E-8,1E0,9E-2,8.627451E-2,1.8E-1,8.2E-1,6.865397E-6,-4.4032535E-1,4.80284E-1,1E0,5.0725966E-9,5.6567586E-7,1.1E-1,-3.707993E-1,4.7961196E-1,1.1E-1,4.442006E-1,1E0,1E0,1.8644542E-4,9.5E-1,6.5219097E-9,5.8708414E-3,4.0177026E-1,-4.4431934E-1,9.784736E-3,7.450981E-2,-3.669489E-1,2.9E-1,2.4E-1,1.5373035E-1,1E0,4.7473878E-1,1E0,6E-2,3.2467532E-1,9.5553277E-4,3.8961038E-2,4.7967798E-1,4.773131E-1,3.3501622E-1,-5.415129E-1,4.5312586E-1,-4.2046893E-1,-1.2322478E-2,4.192067E-1,-3.0369577E-1,7.4757405E-2,4.6234658E-1,-4.4853416E-1,-1.2779714E-1,-4.4618967E-1,4.3178377E-1,-4.4959483E-1,4.2117617E-1,-3.4227088E-1,4.6393833E-1,-3.1891778E-1,4.9742857E-1,-4.3907392E-1,-2.9479584E-2,-1.5686585E-2,2.9957625E-1],"split_indices":[1,65,56,2,30,6,1,8,36,28,35,32,1,0,0,95,1,2,31,0,0,26,0,86,61,0,30,1,19,0,0,19,29,0,31,31,0,114,0,90,33,6,0,6,0,0,0,0,0,0,0,0,0,0,0,0,0,0,0,0,0,0,0,0,0,0,0,0,0],"split_type":[0,0,0,0,0,0,0,0,0,0,0,0,0,0,0,0,0,0,0,0,0,0,0,0,0,0,0,0,0,0,0,0,0,0,0,0,0,0,0,0,0,0,0,0,0,0,0,0,0,0,0,0,0,0,0,0,0,0,0,0,0,0,0,0,0,0,0,0,0],"sum_hessian":[2.8761041E4,1.3670481E4,1.5090561E4,1.26904E4,9.8008105E2,1.4381002E4,7.095582E2,1.2438718E4,2.5168297E2,3.0533398E2,6.747471E2,1.3772399E4,6.086034E2,4.207344E1,6.674848E2,1.2356414E4,8.2302925E1,2.1416835E2,3.7514614E1,3.8980618E0,3.0143594E2,6.654662E2,9.280854E0,1.2784557E4,9.87842E2,3.7319916E2,2.3540424E2,1.2271575E4,8.483896E1,3.861329E0,7.84416E1,1.9913048E2,1.5037878E1,3.6744037E0,3.384021E1,6.637174E2,1.7488061E0,1.2783447E4,1.1094886E0,7.835865E2,2.0425548E2,1.4983112E2,2.2336804E2,2.8192124E0,2.3258504E2,1.1876766E4,3.948101E2,2.9082302E1,5.5756657E1,1.9307588E2,6.0545945E0,7.507386E0,7.530492E0,1.2492679E0,3.2590942E1,6.623864E2,1.3309841E0,1.2782322E4,1.1250424E0,7.328445E2,5.0742046E1,9.054756E1,1.13707924E2,8.399734E1,6.583378E1,1.8926613E2,3.4101906E1,1.1746719E0,1.6445407E0],"tree_param":{"num_deleted":"0","num_feature":"122","num_nodes":"69","size_leaf_vector":"1"}},{"base_weights":[-1.226403E-2,1.1539582E0,-1.0915681E0,1.2750299E0,-4.4526803E-1,-1.2072834E0,1.2137091E0,1.3162496E0,-7.4557394E-1,1.3323855E0,-1.2682709E0,-1.2701089E0,1.5816562E-1,-3.860259E-1,4.112396E-1,1.3325201E0,-1.163245E0,-1.0604765E0,1.0124892E0,-3.2028827E-1,4.1055474E-1,-1.3074491E0,3.76405E-1,-1.2963976E0,-6.778545E-1,-5.794303E-1,1.3600793E0,1.0869586E0,4.1350126E-1,3.3936182E-1,-3.9016613E-1,-1.1914908E0,1.7263308E-2,-3.1691802E-1,1.2683476E0,-1.3136561E0,1.2529103E-1,-1.3087628E0,-7.131786E-1,-1.2568818E0,6.601045E-1,1.1543005E-1,-1.0645703E0,5.641264E-1,4.1040406E-1,3.5053658E-1,-6.2667614E-1,-3.8260475E-1,-1.0313664E-1,-2.5050306E-1,3.362893E-1,6.228136E-2,3.9212954E-1,-3.945586E-1,-1.092256E-1,-3.9275223E-1,3.7285954E-1,-3.8677073E-1,3.536063E-1,-3.9086244E-1,2.0694831E-1,-2.1851872E-1,3.8747826E-1,3.3231333E-1,-3.9457786E-1,-3.800697E-1,-3.0292312E-3,2.7288052E-1,-3.3360075E-2],"categories":[],"categories_nodes":[],"categories_segments":[],"categories_sizes":[],"default_left":[0,0,0,0,0,0,0,0,0,0,0,0,0,0,0,0,0,0,0,0,0,0,0,0,0,0,0,0,0,0,0,0,0,0,0,0,0,0,0,0,0,0,0,0,0,0,0,0,0,0,0,0,0,0,0,0,0,0,0,0,0,0,0,0,0,0,0,0,0],"id":2,"left_children":[1,3,5,7,9,11,13,15,17,19,21,23,25,-1,-1,27,29,31,33,-1,-1,35,-1,37,39,41,43,45,-1,-1,-1,47,49,-1,51,53,-1,55,57,59,61,63,65,67,-1,-1,-1,-1,-1,-1,-1,-1,-1,-1,-1,-1,-1,-1,-1,-1,-1,-1,-1,-1,-1,-1,-1,-1,-1],"loss_changes":[3.0337793E4,2.2436074E3,3.3406133E3,8.9797266E2,1.1955859E3,1.02274414E3,2.3696979E2,4.2735547E2,1.2062446E2,2.389679E1,5.6827454E1,1.7654688E2,4.6639795E2,0E0,0E0,1.1648047E2,2.3317383E1,2.5948807E1,1.8975128E1,0E0,0E0,6.440613E0,0E0,7.774609E1,3.7766632E2,1.1007693E2,4.9157715E-1,4.3044153E2,0E0,0E0,0E0,1.1201309E1,2.058522E1,0E0,9.660225E-1,3.2287598E-1,0E0,1.2837891E1,2.5077322E2,3.1326233E1,1.3034164E2,1.931134E2,4.0986465E1,9.588046E-1,0E0,0E0,0E0,0E0,0E0,0E0,0E0,0E0,0E0,0E0,0E0,0E0,0E0,0E0,0E0,0E0,0E0,0E0,0E0,0E0,0E0,0E0,0E0,0E0,0E0],"parents":[2147483647,0,0,1,1,2,2,3,3,4,4,5,5,6,6,7,7,8,8,9,9,10,10,11,11,12,12,15,15,16,16,17,17,18,18,21,21,23,23,24,24,25,25,26,26,27,27,31,31,32,32,34,34,35,35,37,37,38,38,39,39,40,40,41,41,42,42,43,43],"right_children":[2,4,6,8,10,12,14,16,18,20,22,24,26,-1,-1,28,30,32,34,-1,-1,36,-1,38,40,42,44,46,-1,-1,-1,48,50,-1,52,54,-1,56,58,60,62,64,66,68,-1,-1,-1,-1,-1,-1,-1,-1,-1,-1,-1,-1,-1,-1,-1,-1,-1,-1,-1,-1,-1,-1,-1,-1,-1],"split_conditions":[2.17397E-8,1E0,1E0,3.053581E-9,3.1E-1,1.2987013E-2,5.652322E-8,1E0,9E-2,8.627451E-2,1.8E-1,1E0,6.865397E-6,-3.860259E-1,4.112396E-1,9.784736E-3,5.0725966E-9,2.6E-1,1.1E-1,-3.2028827E-1,4.1055474E-1,1.1E-1,3.76405E-1,1E0,1E0,1.8644542E-4,9.5E-1,1E0,4.1350126E-1,3.3936182E-1,-3.9016613E-1,5.8708414E-3,1E0,-3.1691802E-1,2.9E-1,2.4E-1,1.2529103E-1,1E0,1.3E-1,1E0,5E-2,1E0,1.2352009E-3,2.7E-1,4.1040406E-1,3.5053658E-1,-6.2667614E-1,-3.8260475E-1,-1.0313664E-1,-2.5050306E-1,3.362893E-1,6.228136E-2,3.9212954E-1,-3.945586E-1,-1.092256E-1,-3.9275223E-1,3.7285954E-1,-3.8677073E-1,3.536063E-1,-3.9086244E-1,2.0694831E-1,-2.1851872E-1,3.8747826E-1,3.3231333E-1,-3.9457786E-1,-3.800697E-1,-3.0292312E-3,2.7288052E-1,-3.3360075E-2],"split_indices":[1,65,56,2,30,6,1,8,36,28,35,32,1,0,0,19,1,32,31,0,0,26,0,90,61,0,30,61,0,0,0,19,61,0,31,31,0,86,32,90,33,65,0,30,0,0,0,0,0,0,0,0,0,0,0,0,0,0,0,0,0,0,0,0,0,0,0,0,0],"split_type":[0,0,0,0,0,0,0,0,0,0,0,0,0,0,0,0,0,0,0,0,0,0,0,0,0,0,0,0,0,0,0,0,0,0,0,0,0,0,0,0,0,0,0,0,0,0,0,0,0,0,0,0,0,0,0,0,0,0,0,0,0,0,0,0,0,0,0,0,0],"sum_hessian":[2.410032E4,1.1583698E4,1.2516622E4,1.07686455E4,8.150525E2,1.1918823E4,5.977987E2,1.0553701E4,2.1494424E2,2.5773535E2,5.5731714E2,1.1394616E4,5.242069E2,3.4911167E1,5.628876E2,1.0485358E4,6.83424E1,1.8262875E2,3.231549E1,3.3990386E0,2.5433632E2,5.492694E2,8.047688E0,1.0909196E4,4.854198E2,3.2517188E2,1.9903505E2,1.6526411E3,8.832718E3,3.450221E0,6.489218E1,1.6273991E2,1.988885E1,3.212253E0,2.9103237E1,5.4753784E2,1.7315682E0,1.0681486E4,2.2771019E2,3.3884064E2,1.4657918E2,1.34003E2,1.9116885E2,2.6760597E0,1.96359E2,1.6119098E3,4.0731308E1,1.4763113E2,1.510878E1,1.1360084E1,8.528766E0,1.249783E0,2.7853455E1,5.4626733E2,1.2705511E0,1.0680252E4,1.2346178E0,1.7480278E2,5.2907417E1,3.3134308E2,7.497548E0,4.577564E1,1.0080354E2,7.925795E1,5.474506E1,1.6022414E2,3.0944714E1,1.5408858E0,1.135174E0],"tree_param":{"num_deleted":"0","num_feature":"122","num_nodes":"69","size_leaf_vector":"1"}},{"base_weights":[-1.2838588E-2,1.0373038E0,-9.9872166E-1,1.1449924E0,-4.0854388E-1,-1.1047425E0,1.1015377E0,1.1825489E0,-6.565325E-1,1.2070014E0,-1.165245E0,-1.1642709E0,1.3673878E-1,-3.533435E-1,3.733912E-1,1.1970897E0,-1.0594655E0,-9.3371737E-1,8.882484E-1,-2.845982E-1,3.725773E-1,-1.2026526E0,3.3452785E-1,-1.1901616E0,-6.0130936E-1,-5.0428826E-1,1.2320604E0,9.316188E-1,3.7503213E-1,2.978391E-1,-3.581826E-1,-1.0584246E0,1.5409733E-2,-2.8140044E-1,1.1255504E0,-1.2094744E0,1.0272688E-1,-1.2026011E0,-6.301388E-1,-1.1397045E0,5.472555E-1,-8.002897E-3,-1.1354873E0,4.850797E-1,3.7226933E-1,-3.1075472E-2,3.66484E-1,-3.4621146E-1,-7.687103E-2,-2.0974581E-1,2.7271643E-1,3.579547E-1,7.551484E-2,-3.633792E-1,-9.360572E-2,-3.609148E-1,3.09331E-1,-3.554518E-1,2.6167658E-1,-3.5576302E-1,1.6407111E-1,3.6194012E-1,-1.9024746E-1,1.5073413E-1,-3.4978402E-1,-4.4469804E-2,-3.8279912E-1,-4.7391545E-2,2.5223377E-1],"categories":[],"categories_nodes":[],"categories_segments":[],"categories_sizes":[],"default_left":[0,0,0,0,0,0,0,0,0,0,0,0,0,0,0,0,0,0,0,0,0,0,0,0,0,0,0,0,0,0,0,0,0,0,0,0,0,0,0,0,0,0,0,0,0,0,0,0,0,0,0,0,0,0,0,0,0,0,0,0,0,0,0,0,0,0,0,0,0],"id":3,"left_children":[1,3,5,7,9,11,13,15,17,19,21,23,25,-1,-1,27,29,31,33,-1,-1,35,-1,37,39,41,43,45,-1,-1,-1,47,49,-1,51,53,-1,55,57,59,61,63,65,67,-1,-1,-1,-1,-1,-1,-1,-1,-1,-1,-1,-1,-1,-1,-1,-1,-1,-1,-1,-1,-1,-1,-1,-1,-1],"loss_changes":[2.0075674E4,1.4624121E3,2.2282432E3,5.9203613E2,7.9797314E2,7.038154E2,1.5839142E2,2.803545E2,7.75187E1,1.6862213E1,3.9237E1,1.3171191E2,3.0713443E2,0E0,0E0,1.1855469E2,1.6555874E1,1.8047882E1,1.308622E1,0E0,0E0,5.026306E0,0E0,5.9748047E1,2.4890634E2,8.647797E1,4.638977E-1,4.263817E2,0E0,0E0,0E0,1.003302E1,1.2562329E1,0E0,1.1784515E0,3.2208252E-1,0E0,9.74707E0,1.6006693E2,2.1961853E1,1.0108719E2,9.253978E1,1.6668045E1,9.401598E-1,0E0,0E0,0E0,0E0,0E0,0E0,0E0,0E0,0E0,0E0,0E0,0E0,0E0,0E0,0E0,0E0,0E0,0E0,0E0,0E0,0E0,0E0,0E0,0E0,0E0],"parents":[2147483647,0,0,1,1,2,2,3,3,4,4,5,5,6,6,7,7,8,8,9,9,10,10,11,11,12,12,15,15,16,16,17,17,18,18,21,21,23,23,24,24,25,25,26,26,27,27,31,31,32,32,34,34,35,35,37,37,38,38,39,39,40,40,41,41,42,42,43,43],"right_children":[2,4,6,8,10,12,14,16,18,20,22,24,26,-1,-1,28,30,32,34,-1,-1,36,-1,38,40,42,44,46,-1,-1,-1,48,50,-1,52,54,-1,56,58,60,62,64,66,68,-1,-1,-1,-1,-1,-1,-1,-1,-1,-1,-1,-1,-1,-1,-1,-1,-1,-1,-1,-1,-1,-1,-1,-1,-1],"split_conditions":[2.17397E-8,1E0,1E0,3.053581E-9,3.1E-1,1.2987013E-2,5.652322E-8,1E0,9E-2,8.627451E-2,1.8E-1,1E0,6.865397E-6,-3.533435E-1,3.733912E-1,1.1741683E-2,5.0725966E-9,2.6E-1,1.1E-1,-2.845982E-1,3.725773E-1,1.1E-1,3.3452785E-1,1E0,1E0,3E-2,9.5E-1,3.5E-1,3.7503213E-1,2.978391E-1,-3.581826E-1,5.8708414E-3,1E0,-2.8140044E-1,1.0229496E-7,2.4E-1,1.0272688E-1,1E0,1.2E-1,1E0,2.4275997E-7,1E0,6.9917034E-5,3.3E-1,3.7226933E-1,-3.1075472E-2,3.66484E-1,-3.4621146E-1,-7.687103E-2,-2.0974581E-1,2.7271643E-1,3.579547E-1,7.551484E-2,-3.633792E-1,-9.360572E-2,-3.609148E-1,3.09331E-1,-3.554518E-1,2.6167658E-1,-3.5576302E-1,1.6407111E-1,3.6194012E-1,-1.9024746E-1,1.5073413E-1,-3.4978402E-1,-4.4469804E-2,-3.8279912E-1,-4.7391545E-2,2.5223377E-1],"split_indices":[1,65,56,2,30,6,1,8,36,28,35,32,1,0,0,19,1,32,31,0,0,26,0,90,61,31,30,32,0,0,0,19,61,0,2,31,0,86,32,90,1,65,0,32,0,0,0,0,0,0,0,0,0,0,0,0,0,0,0,0,0,0,0,0,0,0,0,0,0],"split_type":[0,0,0,0,0,0,0,0,0,0,0,0,0,0,0,0,0,0,0,0,0,0,0,0,0,0,0,0,0,0,0,0,0,0,0,0,0,0,0,0,0,0,0,0,0,0,0,0,0,0,0,0,0,0,0,0,0,0,0,0,0,0,0,0,0,0,0,0,0],"sum_hessian":[1.9388834E4,9.388424E3,1.0000409E4,8.737828E3,6.5059625E2,9.5203E3,4.8010965E2,8.559727E3,1.7810126E2,2.0733792E2,4.4325833E2,9.084753E3,4.3554706E2,2.7934048E1,4.521756E2,8.505032E3,5.4694233E1,1.513412E2,2.6760054E1,2.8883088E0,2.0444962E2,4.365693E2,6.689027E0,8.684249E3,4.0050385E2,2.750917E2,1.6045534E2,1.4188873E3,7.086145E3,2.970982E0,5.172325E1,1.3366376E2,1.767744E1,2.737763E0,2.4022291E1,4.3486642E2,1.7028531E0,8.494419E3,1.8982974E2,2.7268787E2,1.2781599E2,1.5457138E2,1.20520325E2,2.5296173E0,1.5792572E2,3.1063727E2,1.10825E3,1.1903701E2,1.4626745E1,9.943897E0,7.733544E0,2.1957403E1,2.0648878E0,4.3365204E2,1.2143902E0,8.493176E3,1.2429876E0,1.3879607E2,5.1033672E1,2.657107E2,6.977147E0,8.202566E1,4.579033E1,1.0767271E2,4.6898678E1,1.5271831E1,1.052485E2,1.0988839E0,1.4307334E0],"tree_param":{"num_deleted":"0","num_feature":"122","num_nodes":"69","size_leaf_vector":"1"}},{"base_weights":[-1.2779333E-2,9.598024E-1,-9.345817E-1,2.652891E-1,1.157536E0,-1.0335628E0,1.0319344E0,-6.194169E-1,1.0166217E0,1.1699394E0,-5.6943226E-1,-1.0935134E0,1.1408539E-1,-3.3122966E-1,3.5010064E-1,9.462964E-1,-1.2480606E0,1.1069189E0,-1.0635008E0,1.170449E0,-2.1386248E-1,3.1777862E-1,-1.1116588E0,-7.660372E-1,-1.142453E0,-4.2271855E-1,1.1513774E0,-1.3037618E-1,1.1618497E0,-1.3925478E0,1.0364429E0,1.1462641E0,-4.2928335E-1,1.3705981E-1,-3.3524412E-1,1.1710149E0,3.0431584E-1,-3.4157234E-1,-4.9339473E-2,-1.0112418E0,-3.2585384E-3,-1.1430984E0,3.345579E-1,1.7474914E-1,-8.543279E-1,4.1972488E-1,3.4861165E-1,7.511149E-2,-5.0617296E-1,3.5651833E-1,-1.8301943E-1,-5.041609E-1,-3.414999E-1,-3.136822E-1,3.8629717E-1,3.4976608E-1,-2.482191E-1,2.8884494E-1,-5.030304E-1,3.5140362E-1,4.0685195E-2,2.6753792E-1,-3.079313E-1,-3.1925714E-1,3.306881E-1,-3.479517E-1,1.4169917E-1,-3.430895E-1,2.6560366E-1,-2.0247583E-1,3.7268576E-1,-3.3783627E-1,1.9627586E-2,-3.958063E-2,2.2445165E-1],"categories":[],"categories_nodes":[],"categories_segments":[],"categories_sizes":[],"default_left":[0,0,0,0,0,0,0,0,0,0,0,0,0,0,0,0,0,0,0,0,0,0,0,0,0,0,0,0,0,0,0,0,0,0,0,0,0,0,0,0,0,0,0,0,0,0,0,0,0,0,0,0,0,0,0,0,0,0,0,0,0,0,0,0,0,0,0,0,0,0,0,0,0,0,0],"id":4,"left_children":[1,3,5,7,9,11,13,15,17,19,21,23,25,-1,-1,27,29,31,33,35,-1,-1,37,39,41,43,45,47,49,51,53,55,57,-1,-1,59,61,-1,-1,63,65,67,-1,69,71,73,-1,-1,-1,-1,-1,-1,-1,-1,-1,-1,-1,-1,-1,-1,-1,-1,-1,-1,-1,-1,-1,-1,-1,-1,-1,-1,-1,-1,-1],"loss_changes":[1.3702932E4,1.0210581E3,1.5284824E3,1.0970782E3,1.2466553E2,5.141826E2,1.0992404E2,7.4740405E2,1.6879108E2,6.349121E0,3.822704E1,1.12924805E2,2.075275E2,0E0,0E0,5.069008E1,1.80143E2,5.22146E1,3.5992737E0,2.4594727E0,0E0,0E0,6.2760544E-1,1.732356E2,1.0273926E1,6.352296E1,5.0346375E-1,2.2487692E1,9.263702E0,3.5395508E1,1.8490105E1,3.3289185E1,3.9989124E1,0E0,0E0,1.8061523E0,4.905076E0,0E0,0E0,7.96109E1,1.2503677E2,7.690918E0,0E0,9.508442E1,3.5784187E1,7.130301E-1,0E0,0E0,0E0,0E0,0E0,0E0,0E0,0E0,0E0,0E0,0E0,0E0,0E0,0E0,0E0,0E0,0E0,0E0,0E0,0E0,0E0,0E0,0E0,0E0,0E0,0E0,0E0,0E0,0E0],"parents":[2147483647,0,0,1,1,2,2,3,3,4,4,5,5,6,6,7,7,8,8,9,9,10,10,11,11,12,12,15,15,16,16,17,17,18,18,19,19,22,22,23,23,24,24,25,25,26,26,27,27,28,28,29,29,30,30,31,31,32,32,35,35,36,36,39,39,40,40,41,41,43,43,44,44,45,45],"right_children":[2,4,6,8,10,12,14,16,18,20,22,24,26,-1,-1,28,30,32,34,36,-1,-1,38,40,42,44,46,48,50,52,54,56,58,-1,-1,60,62,-1,-1,64,66,68,-1,70,72,74,-1,-1,-1,-1,-1,-1,-1,-1,-1,-1,-1,-1,-1,-1,-1,-1,-1,-1,-1,-1,-1,-1,-1,-1,-1,-1,-1,-1,-1],"split_conditions":[2.17397E-8,7.827789E-3,1E0,5.1E-1,8.4E-1,1.2987013E-2,5.652322E-8,1.1764706E-2,1E0,1E0,1.1372549E-1,3.053581E-9,6.865397E-6,-3.3122966E-1,3.5010064E-1,3E-2,9.7E-1,1E0,1.9607844E-2,2.1E-1,-2.1386248E-1,3.1777862E-1,1.5E-1,8.2E-1,9.9E-1,1.8644542E-4,9.5E-1,1E0,3.4E-1,1E0,8E-2,3.053581E-9,7.2465667E-10,1.3705981E-1,-3.3524412E-1,1E0,1.5E-1,-3.4157234E-1,-4.9339473E-2,1E0,1.5000393E-7,1E0,3.345579E-1,3.2467532E-1,9.5553277E-4,3.3E-1,3.4861165E-1,7.511149E-2,-5.0617296E-1,3.5651833E-1,-1.8301943E-1,-5.041609E-1,-3.414999E-1,-3.136822E-1,3.8629717E-1,3.4976608E-1,-2.482191E-1,2.8884494E-1,-5.030304E-1,3.5140362E-1,4.0685195E-2,2.6753792E-1,-3.079313E-1,-3.1925714E-1,3.306881E-1,-3.479517E-1,1.4169917E-1,-3.430895E-1,2.6560366E-1,-2.0247583E-1,3.7268576E-1,-3.3783627E-1,1.9627586E-2,-3.958063E-2,2.2445165E-1],"split_indices":[1,19,56,32,30,6,1,29,65,42,29,2,1,0,0,36,34,61,29,33,0,0,32,30,36,0,30,101,30,65,35,2,1,0,0,53,26,0,0,90,1,86,0,6,0,32,0,0,0,0,0,0,0,0,0,0,0,0,0,0,0,0,0,0,0,0,0,0,0,0,0,0,0,0,0],"split_type":[0,0,0,0,0,0,0,0,0,0,0,0,0,0,0,0,0,0,0,0,0,0,0,0,0,0,0,0,0,0,0,0,0,0,0,0,0,0,0,0,0,0,0,0,0,0,0,0,0,0,0,0,0,0,0,0,0,0,0,0,0,0,0,0,0,0,0,0,0,0,0,0,0,0,0],"sum_hessian":[1.5282443E4,7.436377E3,7.846066E3,1.6485177E3,5.787859E3,7.470525E3,3.7554135E2,7.571441E2,8.9137354E2,5.7469062E3,4.09529E1,7.099699E3,3.7082547E2,2.190764E1,3.5363373E2,2.1676338E2,5.4038074E2,8.547376E2,3.663592E1,5.7457295E3,1.1766413E0,9.99056E0,3.0962341E1,9.252289E2,6.17447E3,2.4475566E2,1.26069824E2,3.6223743E1,1.8053964E2,5.086037E2,3.1777037E1,8.3364026E2,2.1097311E1,1.0002283E0,3.5635693E1,5.7416265E3,4.1033144E0,2.991035E1,1.0519912E0,6.999089E2,2.2532005E2,6.173199E3,1.2712624E0,1.02903564E2,1.418521E2,2.3904483E0,1.23679375E2,2.9779936E1,6.443807E0,1.7819939E2,2.3402452E0,2.3583093E2,2.727728E2,3.0808554E0,2.869618E1,8.258388E2,7.8015056E0,1.0078571E1,1.1018739E1,5.7396636E3,1.9628831E0,3.0754695E0,1.0278448E0,6.8328754E2,1.6621332E1,6.5235565E1,1.6008449E2,6.1720127E3,1.1862968E0,5.7503468E1,4.5400093E1,1.09322296E2,3.25298E1,1.1153729E0,1.2750756E0],"tree_param":{"num_deleted":"0","num_feature":"122","num_nodes":"75","size_leaf_vector":"1"}},{"base_weights":[-1.2152395E-2,9.093017E-1,-8.8607526E-1,2.5258154E-1,1.1077511E0,-9.7946775E-1,9.8546976E-1,-5.1069087E-1,9.592318E-1,1.1181527E0,-5.973784E-1,-1.0396935E0,1.0605382E-1,-3.1475294E-1,3.347689E-1,-9.41077E-1,1.179418E0,1.044253E0,-1.0072817E0,1.1191359E0,5.199503E-1,2.9103896E-1,-3.2091975E-1,-6.8764466E-1,-1.0960901E0,-3.6277473E-1,1.0960823E0,-1.0932022E0,9.93989E-1,1.0871322E-1,3.5607636E-1,1.0842428E0,-3.6075705E-1,1.0201923E-1,-3.2024086E-1,1.119506E0,3.2126486E-1,-3.3421656E-1,1.1018125E0,-9.408817E-1,-1.3989179E-2,-1.0969046E0,3.553362E-1,1.4758339E0,-5.2574694E-1,3.6768174E-1,3.3280092E-1,-3.588603E-1,3.266589E-1,-2.9992253E-1,3.5677248E-1,3.308281E-1,-3.9097562E-1,2.4387005E-1,-4.3792942E-1,3.35898E-1,1.2485113E-1,-6.685616E-2,1.9942726E-1,1.4145964E-1,3.8663626E-1,-2.997046E-1,2.0781323E-1,-3.232521E-1,1.0208259E-1,-3.2935888E-1,1.0828988E-1,5.6684583E-1,-2.2697447E-1,-3.1375134E-1,-2.5294656E-3,2.1186994E-1,-4.860278E-2],"categories":[],"categories_nodes":[],"categories_segments":[],"categories_sizes":[],"default_left":[0,0,0,0,0,0,0,0,0,0,0,0,0,0,0,0,0,0,0,0,0,0,0,0,0,0,0,0,0,0,0,0,0,0,0,0,0,0,0,0,0,0,0,0,0,0,0,0,0,0,0,0,0,0,0,0,0,0,0,0,0,0,0,0,0,0,0,0,0,0,0,0,0],"id":5,"left_children":[1,3,5,7,9,11,13,15,17,19,21,23,25,-1,-1,27,29,31,33,35,37,-1,-1,39,41,43,45,47,49,-1,-1,51,53,-1,-1,55,57,-1,59,61,63,65,-1,67,69,71,-1,-1,-1,-1,-1,-1,-1,-1,-1,-1,-1,-1,-1,-1,-1,-1,-1,-1,-1,-1,-1,-1,-1,-1,-1,-1,-1],"loss_changes":[9.558575E3,7.527197E2,1.0657852E3,7.2436804E2,7.93584E1,3.7948975E2,7.814206E1,4.7089954E2,1.1762726E2,2.0112305E0,2.1438171E1,1.0840674E2,1.4240086E2,0E0,0E0,1.5278256E2,3.7620544E-1,3.797058E1,2.7475395E0,9.404297E-1,9.882538E0,0E0,0E0,1.2995166E2,1.0099121E1,6.3213062E1,5.4372406E-1,1.08786255E2,1.6013897E1,0E0,0E0,3.0199158E1,2.6029518E1,0E0,0E0,1.07421875E-2,7.918212E-1,0E0,2.4262905E-1,5.327289E1,7.9169846E1,7.0126953E0,0E0,1.7339287E1,5.1687622E1,6.9853365E-1,0E0,0E0,0E0,0E0,0E0,0E0,0E0,0E0,0E0,0E0,0E0,0E0,0E0,0E0,0E0,0E0,0E0,0E0,0E0,0E0,0E0,0E0,0E0,0E0,0E0,0E0,0E0],"parents":[2147483647,0,0,1,1,2,2,3,3,4,4,5,5,6,6,7,7,8,8,9,9,10,10,11,11,12,12,15,15,16,16,17,17,18,18,19,19,20,20,23,23,24,24,25,25,26,26,27,27,28,28,31,31,32,32,35,35,36,36,38,38,39,39,40,40,41,41,43,43,44,44,45,45],"right_children":[2,4,6,8,10,12,14,16,18,20,22,24,26,-1,-1,28,30,32,34,36,38,-1,-1,40,42,44,46,48,50,-1,-1,52,54,-1,-1,56,58,-1,60,62,64,66,-1,68,70,72,-1,-1,-1,-1,-1,-1,-1,-1,-1,-1,-1,-1,-1,-1,-1,-1,-1,-1,-1,-1,-1,-1,-1,-1,-1,-1,-1],"split_conditions":[2.17397E-8,9.784736E-3,1E0,5.1E-1,9.1E-1,1.2987013E-2,5.652322E-8,1E0,1E0,2.3665253E-8,1.1372549E-1,3.053581E-9,6.865397E-6,-3.1475294E-1,3.347689E-1,9.6E-1,3.137255E-2,1E0,2.3529412E-2,8.3E-1,6E-2,2.9103896E-1,-3.2091975E-1,8.2E-1,1E0,1.0145193E-7,9.5E-1,9.8E-1,8E-2,1.0871322E-1,3.5607636E-1,1E0,7.2465667E-10,1.0201923E-1,-3.2024086E-1,5.4E-1,2.5440313E-2,-3.3421656E-1,3.5E-1,1E0,1.5000393E-7,9.8E-1,3.553362E-1,2E-2,6.949457E-7,2.7E-1,3.3280092E-1,-3.588603E-1,3.266589E-1,-2.9992253E-1,3.5677248E-1,3.308281E-1,-3.9097562E-1,2.4387005E-1,-4.3792942E-1,3.35898E-1,1.2485113E-1,-6.685616E-2,1.9942726E-1,1.4145964E-1,3.8663626E-1,-2.997046E-1,2.0781323E-1,-3.232521E-1,1.0208259E-1,-3.2935888E-1,1.0828988E-1,5.6684583E-1,-2.2697447E-1,-3.1375134E-1,-2.5294656E-3,2.1186994E-1,-4.860278E-2],"split_indices":[1,19,56,32,30,6,1,90,65,2,29,2,1,0,0,34,28,61,29,30,31,0,0,30,36,1,30,31,35,0,0,59,1,0,0,27,20,0,26,90,1,31,0,31,1,30,0,0,0,0,0,0,0,0,0,0,0,0,0,0,0,0,0,0,0,0,0,0,0,0,0,0,0],"split_type":[0,0,0,0,0,0,0,0,0,0,0,0,0,0,0,0,0,0,0,0,0,0,0,0,0,0,0,0,0,0,0,0,0,0,0,0,0,0,0,0,0,0,0,0,0,0,0,0,0,0,0,0,0,0,0,0,0,0,0,0,0,0,0,0,0,0,0,0,0,0,0,0,0],"sum_hessian":[1.1867881E4,5.776824E3,6.0910566E3,1.3410892E3,4.435735E3,5.802006E3,2.890509E2,6.448482E2,6.96241E2,4.409182E3,2.6552504E1,5.4970654E3,3.0494016E2,1.6988405E1,2.720625E2,5.143199E2,1.3052835E2,6.678365E2,2.8404587E1,4.401079E3,8.103248E0,5.9045196E0,2.0647984E1,7.6083453E2,4.736231E3,2.0737242E2,9.756775E1,4.7723694E2,3.708293E1,1.6363692E0,1.2889198E2,6.495763E2,1.8260159E1,1.0157727E0,2.7388815E1,4.3986353E3,2.4439528E0,1.8876489E0,6.215599E0,5.52678E2,2.0815652E2,4.7350586E3,1.1722741E0,1.622871E1,1.911437E2,2.257264E0,9.5310486E1,4.5615704E2,2.1079918E1,2.9401991E0,3.414273E1,6.4511096E2,4.4653654E0,8.956078E0,9.304081E0,4.39708E3,1.5549568E0,1.081688E0,1.3622648E0,2.2277846E0,3.9878142E0,5.3406116E2,1.8616825E1,5.150242E1,1.5665411E2,4.7321953E3,2.8635488E0,1.3821322E1,2.4073873E0,9.48067E1,9.6337006E1,1.1737624E0,1.0835015E0],"tree_param":{"num_deleted":"0","num_feature":"122","num_nodes":"73","size_leaf_vector":"1"}},{"base_weights":[-1.1147233E-2,8.7151915E-1,-8.4365064E-1,2.3776194E-1,1.0720502E0,-9.3181586E-1,9.5264107E-1,-4.4692373E-1,9.0847474E-1,1.0827178E0,-4.9222437E-1,-9.953743E-1,9.355073E-2,-3.0129066E-1,3.241923E-1,7.498201E-1,-9.970187E-1,9.8926705E-1,-9.59187E-1,1.0838554E0,4.7530663E-1,2.8130463E-1,-9.892522E-1,-6.118496E-1,-1.0624125E0,5.1184916E-1,-9.094685E-1,2.7905777E-2,1.0024801E0,-1.147181E0,8.905228E-1,1.0303786E0,-3.1596538E-1,7.5342685E-2,-3.084311E-1,1.0841395E0,1.21140465E-1,-2.7991578E-1,9.5552593E-1,-5.69969E-2,-3.0759233E-1,-7.632448E-1,5.3290874E-1,-1.0660248E0,-2.8929457E-1,-3.3643997E-1,9.2525446E-1,-2.1465181E-1,-1.0885987E0,-1.4551093E-1,2.535302E-1,3.197105E-1,-2.0113371E-1,-3.5404664E-1,4.9046156E-1,-2.4454801E-1,3.347804E-1,3.1765053E-1,-2.4174145E-1,2.0532404E-1,-3.8571626E-1,3.2530555E-1,9.755788E-2,6.6220805E-2,3.242941E-1,-2.702271E-1,1.6766429E-1,3.1344166E-1,-3.0785894E-1,-3.206346E-1,-4.821052E-2,9.196345E-1,-2.3675962E-1,4.4437718E-1,-2.518073E-1,3.08705E-1,-3.0353022E-1,-4.1115788E-1,3.2412946E-1,-3.4378132E-1,2.3080872E-1],"categories":[],"categories_nodes":[],"categories_segments":[],"categories_sizes":[],"default_left":[0,0,0,0,0,0,0,0,0,0,0,0,0,0,0,0,0,0,0,0,0,0,0,0,0,0,0,0,0,0,0,0,0,0,0,0,0,0,0,0,0,0,0,0,0,0,0,0,0,0,0,0,0,0,0,0,0,0,0,0,0,0,0,0,0,0,0,0,0,0,0,0,0,0,0,0,0,0,0,0,0],"id":6,"left_children":[1,3,5,7,9,11,13,15,17,19,21,23,25,-1,-1,27,29,31,33,35,37,-1,39,41,43,45,47,49,51,53,55,57,59,-1,-1,61,-1,-1,63,-1,-1,65,67,69,71,73,75,77,79,-1,-1,-1,-1,-1,-1,-1,-1,-1,-1,-1,-1,-1,-1,-1,-1,-1,-1,-1,-1,-1,-1,-1,-1,-1,-1,-1,-1,-1,-1,-1,-1],"loss_changes":[6.735671E3,5.651792E2,7.4795703E2,4.9209735E2,5.6926514E1,2.9316846E2,5.649138E1,3.4998618E2,8.2611206E1,1.8041992E0,1.768434E1,1.08226074E2,1.1097694E2,0E0,0E0,3.0547401E1,1.0415558E2,2.8188385E1,2.1723576E0,2.0947266E-1,6.3400517E0,0E0,3.234253E-1,1.100121E2,9.754395E0,6.572099E1,9.459343E0,1.905759E1,1.3844383E1,3.288965E1,1.1435656E1,2.7168335E1,1.7004257E1,0E0,0E0,1.8676758E-1,0E0,0E0,3.607297E-1,0E0,0E0,1.02127594E2,6.049697E1,8.779541E0,3.28229E1,5.7781605E1,2.629966E1,2.7240658E1,7.4516373E0,0E0,0E0,0E0,0E0,0E0,0E0,0E0,0E0,0E0,0E0,0E0,0E0,0E0,0E0,0E0,0E0,0E0,0E0,0E0,0E0,0E0,0E0,0E0,0E0,0E0,0E0,0E0,0E0,0E0,0E0,0E0,0E0],"parents":[2147483647,0,0,1,1,2,2,3,3,4,4,5,5,6,6,7,7,8,8,9,9,10,10,11,11,12,12,15,15,16,16,17,17,18,18,19,19,20,20,22,22,23,23,24,24,25,25,26,26,27,27,28,28,29,29,30,30,31,31,32,32,35,35,38,38,41,41,42,42,43,43,44,44,45,45,46,46,47,47,48,48],"right_children":[2,4,6,8,10,12,14,16,18,20,22,24,26,-1,-1,28,30,32,34,36,38,-1,40,42,44,46,48,50,52,54,56,58,60,-1,-1,62,-1,-1,64,-1,-1,66,68,70,72,74,76,78,80,-1,-1,-1,-1,-1,-1,-1,-1,-1,-1,-1,-1,-1,-1,-1,-1,-1,-1,-1,-1,-1,-1,-1,-1,-1,-1,-1,-1,-1,-1,-1,-1],"split_conditions":[2.17397E-8,9.784736E-3,1E0,5.1E-1,8.4E-1,1.2987013E-2,5.652322E-8,1.5686275E-2,1E0,2.3665253E-8,1.1372549E-1,3.053581E-9,3E-2,-3.0129066E-1,3.241923E-1,4E-2,3.4E-1,1E0,2.745098E-2,2.1E-1,4E-2,2.8130463E-1,8.6E-1,1E-1,1.7E-1,6.949457E-7,1.8644542E-4,3.9138943E-3,2.6E-1,1E0,1E-2,3.053581E-9,7.2465667E-10,7.5342685E-2,-3.084311E-1,5.4E-1,1.21140465E-1,-2.7991578E-1,5.9607846E-1,-5.69969E-2,-3.0759233E-1,1E0,7.058824E-2,2.3255814E-2,4.6378027E-8,1.0145193E-7,3.8961038E-1,3.2467532E-1,6.865397E-6,-1.4551093E-1,2.535302E-1,3.197105E-1,-2.0113371E-1,-3.5404664E-1,4.9046156E-1,-2.4454801E-1,3.347804E-1,3.1765053E-1,-2.4174145E-1,2.0532404E-1,-3.8571626E-1,3.2530555E-1,9.755788E-2,6.6220805E-2,3.242941E-1,-2.702271E-1,1.6766429E-1,3.1344166E-1,-3.0785894E-1,-3.206346E-1,-4.821052E-2,9.196345E-1,-2.3675962E-1,4.4437718E-1,-2.518073E-1,3.08705E-1,-3.0353022E-1,-4.1115788E-1,3.2412946E-1,-3.4378132E-1,2.3080872E-1],"split_indices":[1,19,56,32,30,6,1,29,65,2,29,2,31,0,0,36,35,61,29,33,31,0,30,33,23,1,0,19,30,115,21,2,1,0,0,27,0,0,28,0,0,90,28,13,1,1,6,6,1,0,0,0,0,0,0,0,0,0,0,0,0,0,0,0,0,0,0,0,0,0,0,0,0,0,0,0,0,0,0,0,0],"split_type":[0,0,0,0,0,0,0,0,0,0,0,0,0,0,0,0,0,0,0,0,0,0,0,0,0,0,0,0,0,0,0,0,0,0,0,0,0,0,0,0,0,0,0,0,0,0,0,0,0,0,0,0,0,0,0,0,0,0,0,0,0,0,0,0,0,0,0,0,0,0,0,0,0,0,0,0,0,0,0,0,0],"sum_hessian":[9.164387E3,4.4481567E3,4.71623E3,1.0696924E3,3.3784646E3,4.4960376E3,2.2019226E2,5.294975E2,5.401948E2,3.3558867E3,2.2577677E1,4.23364E3,2.6239752E2,1.3097844E1,2.0709442E2,1.6662912E2,3.628684E2,5.182466E2,2.1948269E1,3.3488308E3,7.056076E0,5.594939E0,1.6982738E1,6.3142053E2,3.6022197E3,1.8551863E2,7.6878876E1,4.348677E1,1.2314234E2,3.3649127E2,2.6377142E1,5.0262567E2,1.5620879E1,1.0399691E0,2.09083E1,3.3468384E3,1.992324E0,1.554413E0,5.501663E0,1.0036495E0,1.5979089E1,5.579628E2,7.345774E1,3.5850903E3,1.7129248E1,6.0847813E1,1.2467082E2,1.6208214E1,6.0670666E1,2.6966639E1,1.6520132E1,1.190079E2,4.1344485E0,3.3311877E2,3.372502E0,2.7735417E0,2.3603601E1,4.9537195E2,7.253725E0,7.8338695E0,7.7870097E0,3.3454739E3,1.3645978E0,1.204772E0,4.296891E0,5.056859E2,5.2276886E1,5.5549267E1,1.7908472E1,3.574025E3,1.1065538E1,1.555898E0,1.557335E1,1.2765196E1,4.808262E1,1.18776955E2,5.89387E0,8.533621E0,7.6745934E0,5.9226105E1,1.4445593E0],"tree_param":{"num_deleted":"0","num_feature":"122","num_nodes":"81","size_leaf_vector":"1"}},{"base_weights":[-1.0132461E-2,8.406278E-1,-8.0970186E-1,2.2760265E-1,1.0482706E0,-8.9366525E-1,9.28138E-1,-3.719186E-1,8.7049586E-1,1.0587958E0,-4.5726842E-1,-9.580479E-1,8.21405E-2,-2.8927505E-1,3.1660303E-1,-7.1312207E-1,1.0903097E0,9.485174E-1,-9.141011E-1,1.0598665E0,4.7667155E-1,2.6231652E-1,-9.2287433E-1,-5.441979E-1,-1.0368335E0,4.5245823E-1,-8.379761E-1,-8.5669327E-1,9.225606E-1,3.3067054E-1,4.4505056E-2,9.730475E-1,-1.2248961E0,6.474116E-2,-2.9833844E-1,1.0601594E0,9.2175215E-2,2.856461E-1,-2.536251E-1,-2.9732257E-1,-2.8280938E-2,-8.1567127E-1,2.1842819E-2,-1.0389215E0,7.553819E-1,-2.8805625E-1,8.214699E-1,-1.689101E-1,-1.0298879E0,-3.295537E-1,6.88857E-2,-2.3318563E-1,3.1805095E-1,3.0523914E-1,-8.416335E-2,-1.2668282E-1,-4.841975E-1,3.1821916E-1,1.6447723E-1,-2.5245696E-1,8.4968996E-1,9.6795484E-2,-3.5855654E-1,-3.140258E-1,-1.6287622E-1,3.6257663E-1,-3.5795722E-2,3.8506162E-1,-2.1947102E-1,2.746685E-1,-2.8114358E-1,-3.2686505E-1,2.9936087E-1,-3.2736295E-1,2.0802939E-1],"categories":[],"categories_nodes":[],"categories_segments":[],"categories_sizes":[],"default_left":[0,0,0,0,0,0,0,0,0,0,0,0,0,0,0,0,0,0,0,0,0,0,0,0,0,0,0,0,0,0,0,0,0,0,0,0,0,0,0,0,0,0,0,0,0,0,0,0,0,0,0,0,0,0,0,0,0,0,0,0,0,0,0,0,0,0,0,0,0,0,0,0,0,0,0],"id":7,"left_children":[1,3,5,7,9,11,13,15,17,19,21,23,25,-1,-1,27,29,31,33,35,37,-1,39,41,43,45,47,49,51,-1,-1,53,55,-1,-1,57,-1,-1,-1,-1,-1,59,61,63,65,67,69,71,73,-1,-1,-1,-1,-1,-1,-1,-1,-1,-1,-1,-1,-1,-1,-1,-1,-1,-1,-1,-1,-1,-1,-1,-1,-1,-1],"loss_changes":[4.784848E3,4.335581E2,5.2993286E2,3.3315695E2,4.0818604E1,2.1742163E2,4.136525E1,2.2406517E2,5.8928497E1,1.0708008E0,1.2196591E1,1.0525464E2,7.365333E1,0E0,0E0,8.614769E1,7.9208374E-1,2.2518646E1,1.8468618E0,2.3022461E-1,4.8651953E0,0E0,7.0322514E-1,8.009857E1,1.0983398E1,4.23141E1,7.7950287E0,8.816547E1,7.797262E0,0E0,0E0,2.2340973E1,8.5092735E-1,0E0,0E0,1.5551758E-1,0E0,0E0,0E0,0E0,0E0,3.5602356E1,6.2583775E1,1.0006592E1,1.6309407E0,3.7151615E1,1.790667E1,1.723223E1,5.832672E0,0E0,0E0,0E0,0E0,0E0,0E0,0E0,0E0,0E0,0E0,0E0,0E0,0E0,0E0,0E0,0E0,0E0,0E0,0E0,0E0,0E0,0E0,0E0,0E0,0E0,0E0],"parents":[2147483647,0,0,1,1,2,2,3,3,4,4,5,5,6,6,7,7,8,8,9,9,10,10,11,11,12,12,15,15,16,16,17,17,18,18,19,19,20,20,22,22,23,23,24,24,25,25,26,26,27,27,28,28,31,31,32,32,35,35,41,41,42,42,43,43,44,44,45,45,46,46,47,47,48,48],"right_children":[2,4,6,8,10,12,14,16,18,20,22,24,26,-1,-1,28,30,32,34,36,38,-1,40,42,44,46,48,50,52,-1,-1,54,56,-1,-1,58,-1,-1,-1,-1,-1,60,62,64,66,68,70,72,74,-1,-1,-1,-1,-1,-1,-1,-1,-1,-1,-1,-1,-1,-1,-1,-1,-1,-1,-1,-1,-1,-1,-1,-1,-1,-1],"split_conditions":[2.17397E-8,1.1741683E-2,1E0,5.1E-1,8.3E-1,1.2987013E-2,5.652322E-8,1E0,1E0,2.3665253E-8,1.1372549E-1,3.053581E-9,3E-2,-2.8927505E-1,3.1660303E-1,9.7E-1,5E-1,1E0,2.745098E-2,5.4E-1,5.0725966E-9,2.6231652E-1,1.1E-1,8.2E-1,9.5E-1,6.949457E-7,1.8644542E-4,1.4E-1,8E-2,3.3067054E-1,4.4505056E-2,1E0,3.9E-1,6.474116E-2,-2.9833844E-1,7.4E-1,9.2175215E-2,2.856461E-1,-2.536251E-1,-2.9732257E-1,-2.8280938E-2,2.5636246E-4,5.8708414E-3,1E0,1.5686275E-2,1.0145193E-7,3.8961038E-1,3.2467532E-1,6.865397E-6,-3.295537E-1,6.88857E-2,-2.3318563E-1,3.1805095E-1,3.0523914E-1,-8.416335E-2,-1.2668282E-1,-4.841975E-1,3.1821916E-1,1.6447723E-1,-2.5245696E-1,8.4968996E-1,9.6795484E-2,-3.5855654E-1,-3.140258E-1,-1.6287622E-1,3.6257663E-1,-3.5795722E-2,3.8506162E-1,-2.1947102E-1,2.746685E-1,-2.8114358E-1,-3.2686505E-1,2.9936087E-1,-3.2736295E-1,2.0802939E-1],"split_indices":[1,19,56,32,30,6,1,90,65,2,29,2,31,0,0,34,32,59,29,27,1,0,32,30,36,1,0,31,35,0,0,61,33,0,0,30,0,0,0,0,0,0,20,101,29,1,6,6,1,0,0,0,0,0,0,0,0,0,0,0,0,0,0,0,0,0,0,0,0,0,0,0,0,0,0],"split_type":[0,0,0,0,0,0,0,0,0,0,0,0,0,0,0,0,0,0,0,0,0,0,0,0,0,0,0,0,0,0,0,0,0,0,0,0,0,0,0,0,0,0,0,0,0,0,0,0,0,0,0,0,0,0,0,0,0,0,0,0,0,0,0,0,0,0,0,0,0,0,0,0,0,0,0],"sum_hessian":[7.0320396E3,3.4069329E3,3.6251064E3,8.6254156E2,2.5443914E3,3.4584956E3,1.6661087E2,4.465443E2,4.1599728E2,2.5270217E3,1.7369581E1,3.2444485E3,2.140471E2,1.0079633E1,1.5653123E2,3.6247495E2,8.406937E1,3.990208E2,1.6976461E1,2.5215627E3,5.458859E0,4.2723846E0,1.3097196E1,5.201388E2,2.7243098E3,1.5298412E2,6.1062992E1,3.33664E2,2.8810936E1,8.285033E1,1.219042E0,3.9511368E2,3.9071338E0,1.0153074E0,1.5961154E1,2.5201733E3,1.3894018E0,4.220713E0,1.238146E0,1.1920006E1,1.1771904E0,3.51242E2,1.688968E2,2.7215593E3,2.7503934E0,5.0953175E1,1.02030945E2,1.4030013E1,4.7032978E1,2.7290308E2,6.076094E1,1.8095531E0,2.7001383E1,3.817753E2,1.3338389E1,1.956524E0,1.9506098E0,2.5162942E3,3.8791714E0,3.4953427E2,1.7077099E0,1.3601372E2,3.2883087E1,2.678165E3,4.339442E1,1.5602617E0,1.1901315E0,1.0797636E1,4.0155537E1,9.730423E1,4.7267156E0,7.8791842E0,6.1508293E0,4.5771076E1,1.261902E0],"tree_param":{"num_deleted":"0","num_feature":"122","num_nodes":"75","size_leaf_vector":"1"}},{"base_weights":[-9.2548495E-3,8.632282E-1,-7.311631E-1,9.5031947E-1,-3.1933627E-1,-1.0461908E-1,-9.282098E-1,5.960394E-1,1.0424945E0,9.250372E-1,-9.7285455E-1,-3.8112423E-1,1.0136157E0,-1.0112474E0,9.3473E-2,-1.9039777E-1,9.7116786E-1,1.0430852E0,4.053787E-2,-6.695726E-1,3.1200534E-1,-1.01421E0,2.2165735E-1,3.7468863E-1,-6.1466074E-1,-1.7368057E-1,1.0302827E0,-1.0163591E0,3.9530438E-1,6.132077E-1,-5.4813683E-1,-5.820016E-1,3.1701875E-1,1.0026222E0,-8.14576E-1,8.184777E-1,3.1358063E-1,-2.577556E-1,-3.2779393E-3,-3.0972832E-1,1.1293792E-1,-2.269457E-1,9.522307E-1,-8.1030476E-1,6.473118E-1,3.108149E-1,4.164133E-2,-1.02208E0,-4.025566E-2,2.2706165E0,-2.5920302E-1,8.0743366E-1,-3.0646795E-1,-9.9913687E-1,3.2451904E-1,-2.7369568E-1,3.1695136E-1,3.0433667E-1,-1.8387718E-1,-3.8681498E-1,2.024347E-1,2.9900807E-1,-4.0669963E-1,6.551205E-2,-2.7912953E-1,-5.943043E-1,3.092159E-1,-2.549672E-1,3.0822632E-1,4.4915962E-1,3.0342365E-2,-3.0734316E-1,1.5417452E-1,6.419034E-1,-2.1165444E-1,8.9994985E-1,1.0934985E-1,2.7060205E-1,-2.7669838E-1,4.1590545E-1,-3.265906E-1,3.5220972E-1,-3.1126586E-1],"categories":[],"categories_nodes":[],"categories_segments":[],"categories_sizes":[],"default_left":[0,0,0,0,0,0,0,0,0,0,0,0,0,0,0,0,0,0,0,0,0,0,0,0,0,0,0,0,0,0,0,0,0,0,0,0,0,0,0,0,0,0,0,0,0,0,0,0,0,0,0,0,0,0,0,0,0,0,0,0,0,0,0,0,0,0,0,0,0,0,0,0,0,0,0,0,0,0,0,0,0,0,0],"id":8,"left_children":[1,3,5,7,9,11,13,15,17,19,21,23,25,27,29,31,33,35,-1,37,-1,39,-1,41,43,-1,45,47,49,51,53,55,-1,57,59,61,-1,-1,-1,-1,-1,63,65,67,69,-1,-1,71,73,75,-1,77,-1,79,81,-1,-1,-1,-1,-1,-1,-1,-1,-1,-1,-1,-1,-1,-1,-1,-1,-1,-1,-1,-1,-1,-1,-1,-1,-1,-1,-1,-1],"loss_changes":[3.4107644E3,2.5282605E2,3.657456E2,7.3963135E1,1.3828076E2,2.1994846E2,1.9133545E2,1.399866E2,8.294678E-1,1.1455879E1,8.624649E0,1.00850235E2,4.340378E0,1.5391602E1,5.7143505E1,7.5764915E1,1.8847351E1,3.2226562E-2,0E0,5.5949473E-1,0E0,3.15139E0,0E0,4.7187866E1,1.0813974E2,0E0,5.7566833E-1,1.1560059E1,2.149048E1,3.0857777E1,3.0536959E1,6.469302E1,0E0,6.660858E0,5.1894417E0,9.888537E0,0E0,0E0,0E0,0E0,0E0,2.119825E1,1.7965473E1,2.83582E1,2.7262869E1,0E0,0E0,8.1311035E0,2.0574696E1,3.9073086E0,0E0,1.4753628E1,0E0,1.236673E1,3.2356613E1,0E0,0E0,0E0,0E0,0E0,0E0,0E0,0E0,0E0,0E0,0E0,0E0,0E0,0E0,0E0,0E0,0E0,0E0,0E0,0E0,0E0,0E0,0E0,0E0,0E0,0E0,0E0,0E0],"parents":[2147483647,0,0,1,1,2,2,3,3,4,4,5,5,6,6,7,7,8,8,9,9,10,10,11,11,12,12,13,13,14,14,15,15,16,16,17,17,19,19,21,21,23,23,24,24,26,26,27,27,28,28,29,29,30,30,31,31,33,33,34,34,35,35,41,41,42,42,43,43,44,44,47,47,48,48,49,49,51,51,53,53,54,54],"right_children":[2,4,6,8,10,12,14,16,18,20,22,24,26,28,30,32,34,36,-1,38,-1,40,-1,42,44,-1,46,48,50,52,54,56,-1,58,60,62,-1,-1,-1,-1,-1,64,66,68,70,-1,-1,72,74,76,-1,78,-1,80,82,-1,-1,-1,-1,-1,-1,-1,-1,-1,-1,-1,-1,-1,-1,-1,-1,-1,-1,-1,-1,-1,-1,-1,-1,-1,-1,-1,-1],"split_conditions":[6.5219097E-9,1E0,3.053581E-9,1.1741683E-2,6.1E-1,4.892368E-2,1.2987013E-2,1.5E-1,9.69512E-8,1.1372549E-1,1.8E-1,4.3137256E-2,4.892368E-2,1.3390466E-4,3.4958517E-4,1E0,1E0,2.627451E-1,4.053787E-2,5E-2,3.1200534E-1,1.1E-1,2.2165735E-1,1.1E-1,1E0,-1.7368057E-1,6E-2,1.7E-1,1.9607844E-2,1E-2,9.5553277E-4,8.9E-1,3.1701875E-1,1E0,2.745098E-2,1.1E-1,3.1358063E-1,-2.577556E-1,-3.2779393E-3,-3.0972832E-1,1.1293792E-1,2.0784314E-1,1.3043819E-8,9.322271E-5,7.536429E-8,3.108149E-1,4.164133E-2,3.855753E-5,2.6E-1,3.2161835E-3,-2.5920302E-1,6.504891E-6,-3.0646795E-1,5.1948052E-2,3E-2,-2.7369568E-1,3.1695136E-1,3.0433667E-1,-1.8387718E-1,-3.8681498E-1,2.024347E-1,2.9900807E-1,-4.0669963E-1,6.551205E-2,-2.7912953E-1,-5.943043E-1,3.092159E-1,-2.549672E-1,3.0822632E-1,4.4915962E-1,3.0342365E-2,-3.0734316E-1,1.5417452E-1,6.419034E-1,-2.1165444E-1,8.9994985E-1,1.0934985E-1,2.7060205E-1,-2.7669838E-1,4.1590545E-1,-3.265906E-1,3.5220972E-1,-3.1126586E-1],"split_indices":[1,65,2,19,30,20,6,32,2,28,35,28,19,12,0,90,59,28,0,34,0,26,0,33,90,0,26,23,29,33,0,34,0,104,28,26,0,0,0,0,0,29,1,0,1,0,0,1,25,0,0,2,0,6,31,0,0,0,0,0,0,0,0,0,0,0,0,0,0,0,0,0,0,0,0,0,0,0,0,0,0,0,0],"split_type":[0,0,0,0,0,0,0,0,0,0,0,0,0,0,0,0,0,0,0,0,0,0,0,0,0,0,0,0,0,0,0,0,0,0,0,0,0,0,0,0,0,0,0,0,0,0,0,0,0,0,0,0,0,0,0,0,0,0,0,0,0,0,0,0,0,0,0,0,0,0,0,0,0,0,0,0,0,0,0,0,0,0,0],"sum_hessian":[5.4131753E3,2.4508882E3,2.9622874E3,2.2829539E3,1.6793423E2,7.0910284E2,2.2531846E3,4.7288004E2,1.8100739E3,5.7683254E1,1.1025098E2,5.6905273E2,1.4005011E2,2.0838306E3,1.6935388E2,1.5287598E2,3.2000406E2,1.808747E3,1.3268726E0,3.5551534E0,5.41281E1,1.08048E2,2.2029774E0,1.3418254E2,4.3487018E2,1.1011221E0,1.3894897E2,2.0765613E3,7.2692175E0,9.358766E1,7.576622E1,1.1674942E2,3.6126553E1,3.1489597E2,5.108095E0,2.103378E1,1.7877131E3,2.5240514E0,1.031102E0,1.0690514E2,1.1428502E0,6.601782E1,6.816472E1,3.7681094E2,5.805922E1,1.3789479E2,1.05419E0,2.064415E3,1.21463585E1,2.5977347E0,4.671483E0,8.410167E1,9.485993E0,4.9855373E1,2.591085E1,9.7530754E1,1.921867E1,3.129756E2,1.9203627E0,3.9751027E0,1.1329927E0,1.994079E1,1.092989E0,4.0849163E1,2.5168663E1,1.1447393E0,6.701998E1,3.693915E2,7.419429E0,2.203291E1,3.602631E1,2.0615308E3,2.8843634E0,2.3218312E0,9.824527E0,1.4639024E0,1.1338322E0,8.019559E1,3.9060802E0,1.2788465E0,4.8576527E1,1.6043009E1,9.867842E0],"tree_param":{"num_deleted":"0","num_feature":"122","num_nodes":"83","size_leaf_vector":"1"}},{"base_weights":[-7.8341E-3,8.3999896E-1,-6.9559383E-1,2.2785005E-1,1.0140288E0,-8.890811E-2,-9.043505E-1,-2.968366E-1,9.0586925E-1,-2.6879254E-1,1.0196158E0,-3.2583112E-1,9.964597E-1,-9.907038E-1,7.340187E-2,-8.914588E-1,5.54094E-1,1.0200244E0,-4.4495928E-1,1.022545E0,-2.389829E-1,-5.684521E-1,2.8918844E-1,-7.638581E-2,3.0384123E-1,-5.816793E-1,-1.0151789E0,5.368632E-1,-5.00797E-1,-1.0029904E0,2.7476332E-1,9.8211426E-1,-9.895925E-2,3.1106362E-1,1.7255801E-1,-2.745406E-1,2.4443354E-1,1.0258363E0,-1.1629332E-1,-7.5011355E-1,4.4472757E-1,4.5529795E-1,-8.19688E-1,-6.7221224E-1,7.7396953E-1,-1.0191762E0,9.1147906E-1,-3.216631E-1,9.103077E-1,-9.495881E-1,2.4323714E-1,-3.281686E-1,1.680672E-1,3.0684978E-1,-1.9724703E-1,-1.903892E-1,2.4962664E-1,-2.5910184E-1,2.1979676E-1,2.298589E-1,3.100493E-1,2.659952E-1,-2.373225E-1,-2.4138854E-1,2.2350128E-1,4.0340695E-1,-1.7520545E-2,-2.2603713E-2,2.5921404E-1,-3.2665575E-1,2.2105268E-1,-2.3926803E-1,3.160619E-1,-3.0735803E-1,-6.356174E-2,-1.921614E-1,7.293959E-1,2.4758546E-1,-2.9040635E-1,3.0351403E-1,-8.0898E-2,3.1037155E-1,-3.164748E-1,2.5076532E-1,-3.5591042E-1],"categories":[],"categories_nodes":[],"categories_segments":[],"categories_sizes":[],"default_left":[0,0,0,0,0,0,0,0,0,0,0,0,0,0,0,0,0,0,0,0,0,0,0,0,0,0,0,0,0,0,0,0,0,0,0,0,0,0,0,0,0,0,0,0,0,0,0,0,0,0,0,0,0,0,0,0,0,0,0,0,0,0,0,0,0,0,0,0,0,0,0,0,0,0,0,0,0,0,0,0,0,0,0,0,0],"id":9,"left_children":[1,3,5,7,9,11,13,15,17,-1,19,21,23,25,27,29,31,33,35,37,-1,39,41,-1,-1,43,45,47,49,51,-1,53,55,-1,57,-1,-1,59,61,63,65,67,69,71,-1,73,75,77,79,81,83,-1,-1,-1,-1,-1,-1,-1,-1,-1,-1,-1,-1,-1,-1,-1,-1,-1,-1,-1,-1,-1,-1,-1,-1,-1,-1,-1,-1,-1,-1,-1,-1,-1,-1],"loss_changes":[2.4295862E3,1.9857422E2,2.9127466E2,1.476851E2,1.641626E1,1.5205302E2,1.44573E2,1.1907602E2,2.8368484E1,0E0,8.523193E0,7.254548E1,2.4246979E0,1.5152954E1,3.7476536E1,2.8804588E1,2.7216154E1,2.2095947E0,9.512899E0,5.543457E0,0E0,6.441931E1,2.5771297E1,0E0,0E0,2.7818424E1,1.2346191E1,2.525279E1,2.1255947E1,1.9196732E1,0E0,4.591358E0,2.0138693E1,0E0,3.2215993E0,0E0,0E0,2.0787354E0,4.1314945E0,2.4694397E1,2.4332825E1,2.6215769E1,8.4783325E0,2.0176506E1,0E0,6.175171E0,1.0042636E1,1.884139E1,6.7956314E0,9.341942E0,2.1737574E1,0E0,0E0,0E0,0E0,0E0,0E0,0E0,0E0,0E0,0E0,0E0,0E0,0E0,0E0,0E0,0E0,0E0,0E0,0E0,0E0,0E0,0E0,0E0,0E0,0E0,0E0,0E0,0E0,0E0,0E0,0E0,0E0,0E0,0E0],"parents":[2147483647,0,0,1,1,2,2,3,3,4,4,5,5,6,6,7,7,8,8,10,10,11,11,12,12,13,13,14,14,15,15,16,16,17,17,18,18,19,19,21,21,22,22,25,25,26,26,27,27,28,28,29,29,31,31,32,32,34,34,37,37,38,38,39,39,40,40,41,41,42,42,43,43,45,45,46,46,47,47,48,48,49,49,50,50],"right_children":[2,4,6,8,10,12,14,16,18,-1,20,22,24,26,28,30,32,34,36,38,-1,40,42,-1,-1,44,46,48,50,52,-1,54,56,-1,58,-1,-1,60,62,64,66,68,70,72,-1,74,76,78,80,82,84,-1,-1,-1,-1,-1,-1,-1,-1,-1,-1,-1,-1,-1,-1,-1,-1,-1,-1,-1,-1,-1,-1,-1,-1,-1,-1,-1,-1,-1,-1,-1,-1,-1,-1],"split_conditions":[6.5219097E-9,8.901961E-1,3.053581E-9,7.827789E-3,2E-2,5.0880626E-2,1.2987013E-2,7E-2,1E0,-2.6879254E-1,1E0,1E0,5.2837573E-2,2.745098E-2,3.4958517E-4,1E0,4E-2,1E0,1.8E-1,9.69512E-8,-2.389829E-1,1E0,5.8708414E-3,-7.638581E-2,3.0384123E-1,2.3255814E-2,3.855753E-5,8.0581816E-7,9.5553277E-4,1E0,2.7476332E-1,5.0725966E-9,6.8E-1,3.1106362E-1,3.522505E-2,-2.745406E-1,2.4443354E-1,3.9138943E-3,1E0,1E0,7.536429E-8,1.7826554E-7,1E0,7.6E-1,7.7396953E-1,3.8E-1,4.8235294E-1,1.0145193E-7,4E-2,5.1948052E-2,7.02858E-6,-3.281686E-1,1.680672E-1,3.0684978E-1,-1.9724703E-1,-1.903892E-1,2.4962664E-1,-2.5910184E-1,2.1979676E-1,2.298589E-1,3.100493E-1,2.659952E-1,-2.373225E-1,-2.4138854E-1,2.2350128E-1,4.0340695E-1,-1.7520545E-2,-2.2603713E-2,2.5921404E-1,-3.2665575E-1,2.2105268E-1,-2.3926803E-1,3.160619E-1,-3.0735803E-1,-6.356174E-2,-1.921614E-1,7.293959E-1,2.4758546E-1,-2.9040635E-1,3.0351403E-1,-8.0898E-2,3.1037155E-1,-3.164748E-1,2.5076532E-1,-3.5591042E-1],"split_indices":[1,28,2,20,31,20,6,31,65,0,42,32,19,29,0,38,30,61,35,2,0,90,19,0,0,13,1,1,0,61,0,1,31,0,19,0,0,19,59,56,1,1,38,26,0,31,28,1,31,6,2,0,0,0,0,0,0,0,0,0,0,0,0,0,0,0,0,0,0,0,0,0,0,0,0,0,0,0,0,0,0,0,0,0,0],"split_type":[0,0,0,0,0,0,0,0,0,0,0,0,0,0,0,0,0,0,0,0,0,0,0,0,0,0,0,0,0,0,0,0,0,0,0,0,0,0,0,0,0,0,0,0,0,0,0,0,0,0,0,0,0,0,0,0,0,0,0,0,0,0,0,0,0,0,0,0,0,0,0,0,0,0,0,0,0,0,0,0,0,0,0,0,0],"sum_hessian":[4.1646304E3,1.8651512E3,2.2994792E3,4.133842E2,1.4517671E3,5.8904144E2,1.7104377E3,2.3336014E2,1.8002405E2,3.769385E0,1.4479977E3,4.840737E2,1.0496778E2,1.5716218E3,1.3881593E2,1.3734036E2,9.601977E1,1.6622194E2,1.3802109E1,1.4461024E3,1.8952613E0,3.4718665E2,1.3688704E2,1.1656282E0,1.03802155E2,9.0131134E1,1.4814907E3,7.685105E1,6.1964874E1,1.2977682E2,7.5635457E0,5.7699093E1,3.832067E1,1.6276146E2,3.4604862E0,1.0250013E1,3.552095E0,1.4420342E3,4.068335E0,2.9462122E2,5.2565434E1,1.19565544E2,1.7321493E1,8.838751E1,1.743628E0,1.4788934E3,2.59726E0,2.3337713E1,5.351334E1,3.8478752E1,2.3486124E1,1.22928444E2,6.8483763E0,5.666796E1,1.0311315E0,2.4527393E1,1.3793279E1,1.0239971E0,2.436489E0,4.422628E1,1.3978079E3,1.5100018E0,2.5583332E0,2.8470224E2,9.918966E0,1.8249453E1,3.431598E1,5.2380325E1,6.718522E1,1.5023929E1,2.2975652E0,8.290375E1,5.4837637E0,1.4688892E3,1.0004299E1,1.571272E0,1.025988E0,8.311795E0,1.5025919E1,4.9409695E1,4.103645E0,1.4949307E0,3.698382E1,1.6896805E1,6.589319E0],"tree_param":{"num_deleted":"0","num_feature":"122","num_nodes":"85","size_leaf_vector":"1"}},{"base_weights":[-6.7080143E-3,7.6201594E-1,-7.05276E-1,1.5932193E-1,9.962525E-1,-7.7951604E-1,8.387453E-1,-2.081526E-1,1.0834383E0,1.0102674E0,-2.4110338E-1,-3.8261074E-1,-9.4486237E-1,-2.7069512E-1,3.0384597E-1,7.257423E-1,-8.6071265E-1,5.60595E-1,1.0141062E0,1.0159817E0,-9.166987E-1,2.3019506E-1,-8.4160125E-1,-5.872712E-1,2.1392511E-1,-9.8425007E-1,5.925966E-1,-4.0582407E-1,8.6588746E-1,-9.5013386E-1,1.6548488E-1,6.602069E-2,3.0672234E-1,6.4456844E-1,1.0242546E0,-3.3308384E-1,-7.8791514E-2,-6.671469E-2,-2.6799944E-1,-6.628918E-1,4.582907E-1,-3.6254495E-1,5.314183E-1,-9.904503E-1,9.057268E-1,8.601251E-1,-2.643154E-1,-2.1991883E-1,2.6193684E-1,2.752855E-1,-1.1545669E-1,-3.0258974E-1,2.5086465E-1,-3.2308996E-1,1.7921026E-1,2.8533688E-1,-2.7880353E-1,3.075635E-1,7.421084E-3,-2.2951438E-1,-8.671163E-2,2.6835096E-1,-3.030331E-1,-1.878016E-1,2.9846275E-1,4.0813252E-1,-5.943136E-4,-2.9991758E-1,8.36378E-2,-2.1034834E-1,8.823814E-1,2.9391664E-1,-2.2669326E-1],"categories":[],"categories_nodes":[],"categories_segments":[],"categories_sizes":[],"default_left":[0,0,0,0,0,0,0,0,0,0,0,0,0,0,0,0,0,0,0,0,0,0,0,0,0,0,0,0,0,0,0,0,0,0,0,0,0,0,0,0,0,0,0,0,0,0,0,0,0,0,0,0,0,0,0,0,0,0,0,0,0,0,0,0,0,0,0,0,0,0,0,0,0],"id":10,"left_children":[1,3,5,7,9,11,13,15,17,19,21,23,25,-1,-1,27,29,-1,31,33,35,-1,37,39,41,43,45,47,49,51,53,-1,-1,55,57,-1,-1,-1,-1,59,61,63,65,67,69,71,-1,-1,-1,-1,-1,-1,-1,-1,-1,-1,-1,-1,-1,-1,-1,-1,-1,-1,-1,-1,-1,-1,-1,-1,-1,-1,-1],"loss_changes":[1.7301659E3,2.1638898E2,1.9414111E2,1.4641754E2,1.9395874E1,1.0536572E2,2.4529186E1,1.8884697E2,4.781723E0,1.2958374E1,8.6248E0,5.8172356E1,6.941144E1,0E0,0E0,2.0584114E1,1.6882996E1,0E0,5.322647E-1,2.6871338E0,1.8384576E-1,0E0,8.115721E-2,2.8314407E1,2.2555485E1,1.3887573E1,1.2196646E1,6.809426E0,7.7190323E0,1.8379196E1,8.939765E0,0E0,0E0,1.3639157E1,9.926758E-1,0E0,0E0,0E0,0E0,1.2411896E1,1.6587461E1,1.6354258E1,3.5023132E1,1.329187E1,1.5627428E1,5.583454E0,0E0,0E0,0E0,0E0,0E0,0E0,0E0,0E0,0E0,0E0,0E0,0E0,0E0,0E0,0E0,0E0,0E0,0E0,0E0,0E0,0E0,0E0,0E0,0E0,0E0,0E0,0E0],"parents":[2147483647,0,0,1,1,2,2,3,3,4,4,5,5,6,6,7,7,8,8,9,9,10,10,11,11,12,12,15,15,16,16,18,18,19,19,20,20,22,22,23,23,24,24,25,25,26,26,27,27,28,28,29,29,30,30,33,33,34,34,39,39,40,40,41,41,42,42,43,43,44,44,45,45],"right_children":[2,4,6,8,10,12,14,16,18,20,22,24,26,-1,-1,28,30,-1,32,34,36,-1,38,40,42,44,46,48,50,52,54,-1,-1,56,58,-1,-1,-1,-1,60,62,64,66,68,70,72,-1,-1,-1,-1,-1,-1,-1,-1,-1,-1,-1,-1,-1,-1,-1,-1,-1,-1,-1,-1,-1,-1,-1,-1,-1,-1,-1],"split_conditions":[2.17397E-8,5.8708414E-3,1E0,1E0,8.3E-1,3.4509805E-1,5.652322E-8,1.1764706E-2,3.4E-1,1E0,3.3333334E-1,1E0,2.5974026E-2,-2.7069512E-1,3.0384597E-1,7E-2,5.1E-1,5.60595E-1,1E0,4.0392157E-1,7.827789E-3,2.3019506E-1,9.6E-1,1E0,2.4203533E-7,3.7E-1,1E-2,1E0,2.8245625E-8,1E0,1.8E-1,6.602069E-2,3.0672234E-1,1.1E-1,1.5344244E-7,-3.3308384E-1,-7.8791514E-2,-6.671469E-2,-2.6799944E-1,1E-2,7E-2,1E0,2.4275997E-7,1.1143045E-5,3.9215687E-1,6.504891E-6,-2.643154E-1,-2.1991883E-1,2.6193684E-1,2.752855E-1,-1.1545669E-1,-3.0258974E-1,2.5086465E-1,-3.2308996E-1,1.7921026E-1,2.8533688E-1,-2.7880353E-1,3.075635E-1,7.421084E-3,-2.2951438E-1,-8.671163E-2,2.6835096E-1,-3.030331E-1,-1.878016E-1,2.9846275E-1,4.0813252E-1,-5.943136E-4,-2.9991758E-1,8.36378E-2,-2.1034834E-1,8.823814E-1,2.9391664E-1,-2.2669326E-1],"split_indices":[1,19,56,38,30,29,1,29,32,42,29,30,6,0,0,31,21,0,55,28,19,0,30,90,1,31,33,115,2,31,34,0,0,26,2,0,0,0,0,34,31,101,1,1,28,2,0,0,0,0,0,0,0,0,0,0,0,0,0,0,0,0,0,0,0,0,0,0,0,0,0,0,0],"split_type":[0,0,0,0,0,0,0,0,0,0,0,0,0,0,0,0,0,0,0,0,0,0,0,0,0,0,0,0,0,0,0,0,0,0,0,0,0,0,0,0,0,0,0,0,0,0,0,0,0,0,0,0,0,0,0,0,0,0,0,0,0,0,0,0,0,0,0,0,0,0,0,0,0],"sum_hessian":[3.219874E3,1.5329175E3,1.6869564E3,4.2949667E2,1.1034208E3,1.6100374E3,7.691905E1,3.0785358E2,1.21643105E2,1.0912444E3,1.2176402E1,4.7445264E2,1.1355847E3,6.61123E0,7.0307816E1,1.2658397E2,1.812696E2,7.763746E0,1.13879364E2,1.0884893E3,2.755113E0,4.440925E0,7.735477E0,3.532683E2,1.2118431E2,1.1075701E3,2.801468E1,1.3740892E1,1.1284308E2,1.6680832E2,1.4461287E1,1.4629115E0,1.1241645E2,2.543625E1,1.0630531E3,1.5876899E0,1.1674231E0,1.0049496E0,6.7305274E0,3.2978265E2,2.3485653E1,4.2988506E1,7.819581E1,1.1044229E3,3.1472259E0,2.406264E1,3.9520428E0,1.1281234E1,2.4596584E0,1.08617004E2,4.2260695E0,1.6194054E2,4.8677835E0,3.344909E0,1.1116378E1,2.1620813E1,3.8154376E0,1.0620104E3,1.042675E0,2.5818634E2,7.159633E1,1.8408068E1,5.0775847E0,3.6452335E1,6.5361686E0,3.0007242E1,4.8188564E1,1.0966217E3,7.8011293E0,2.1251462E0,1.0220797E0,2.2770824E1,1.2918144E0],"tree_param":{"num_deleted":"0","num_feature":"122","num_nodes":"73","size_leaf_vector":"1"}},{"base_weights":[-4.1929726E-3,7.941989E-1,-6.117361E-1,2.1952726E-1,9.9952626E-1,-7.05051E-2,-8.463285E-1,-3.349094E-1,7.4256474E-1,1.0054775E0,-2.4375851E-1,-2.263613E-1,7.7969164E-1,-9.5655763E-1,1.3261922E-1,-5.5750966E-1,9.980597E-1,8.883278E-1,-7.2377783E-1,5.4942364E-1,1.0156885E0,2.3364488E-2,-6.6417605E-1,9.8033375E-1,-2.6712367E-1,-9.8011553E-1,-7.927902E-2,4.1631666E-1,-6.297328E-1,-7.368962E-1,3.4834015E-1,5.9129883E-2,3.0892035E-1,9.416844E-1,-4.0062594E-1,-1.0004623E0,2.3128702E-1,-7.3049587E-1,2.911866E-1,1.0181814E0,1.0830877E-1,-3.173437E-1,2.5028343E0,-9.1198444E-1,1.3911281E0,-8.34456E-2,3.0200428E-1,-1.0035284E0,-4.0939954E-1,9.4358873E-1,-5.102164E-1,5.285335E-1,-8.951159E-1,1.4978866E-1,-9.678644E-1,-2.921143E-1,2.5701773E-1,2.9183415E-1,-1.3731292E-1,-2.7670276E-1,-2.9443953E-2,-3.5454205E-1,1.5358762E-1,2.0757496E-1,-5.479055E-1,3.0601162E-1,1.4628659E-1,-5.949127E-2,1.1657526E-1,-1.7510256E-1,1.4270969E-1,4.8611093E0,3.8988066E-1,-3.2299533E-1,3.211015E-1,2.906866E-1,8.7905014E-1,-3.0174804E-1,1.1718143E-1,-2.4327941E-1,4.372204E-1,-2.575268E-1,2.055833E-1,7.470056E-2,3.0356854E-1,1.2440606E-1,-3.7472257E-1,1.9979823E-1,-2.8965753E-1,-3.0337602E-1,-4.5268487E-2],"categories":[],"categories_nodes":[],"categories_segments":[],"categories_sizes":[],"default_left":[0,0,0,0,0,0,0,0,0,0,0,0,0,0,0,0,0,0,0,0,0,0,0,0,0,0,0,0,0,0,0,0,0,0,0,0,0,0,0,0,0,0,0,0,0,0,0,0,0,0,0,0,0,0,0,0,0,0,0,0,0,0,0,0,0,0,0,0,0,0,0,0,0,0,0,0,0,0,0,0,0,0,0,0,0,0,0,0,0,0,0],"id":11,"left_children":[1,3,5,7,9,11,13,15,17,19,-1,21,23,25,27,29,31,33,35,37,39,41,43,45,-1,47,49,51,53,55,-1,-1,-1,57,59,61,-1,63,-1,65,67,69,71,73,75,-1,-1,77,79,-1,81,83,85,87,89,-1,-1,-1,-1,-1,-1,-1,-1,-1,-1,-1,-1,-1,-1,-1,-1,-1,-1,-1,-1,-1,-1,-1,-1,-1,-1,-1,-1,-1,-1,-1,-1,-1,-1,-1,-1],"loss_changes":[1.2183137E3,1.2785004E2,1.8103784E2,8.347487E1,9.437439E0,5.747026E1,1.0748901E2,4.209866E1,3.2274185E1,3.1542969E0,0E0,4.00502E1,2.3393967E1,1.8406128E1,2.222944E1,3.8040565E1,3.1441498E-1,9.66581E0,6.5331645E0,1.1295305E1,1.6508789E0,1.9858757E2,6.902515E1,2.285244E0,0E0,1.1226013E1,3.561737E1,1.1455326E1,7.510642E0,4.228188E1,0E0,0E0,0E0,6.101761E0,8.673877E-1,3.9486876E0,0E0,9.731955E0,0E0,2.6763916E-1,3.5653707E-1,4.3943302E1,4.4710553E2,4.0102028E1,6.7184296E0,0E0,0E0,3.071228E0,2.8172943E1,0E0,9.934395E0,9.121201E0,3.4171906E0,6.0089984E0,5.430393E-1,0E0,0E0,0E0,0E0,0E0,0E0,0E0,0E0,0E0,0E0,0E0,0E0,0E0,0E0,0E0,0E0,0E0,0E0,0E0,0E0,0E0,0E0,0E0,0E0,0E0,0E0,0E0,0E0,0E0,0E0,0E0,0E0,0E0,0E0,0E0,0E0],"parents":[2147483647,0,0,1,1,2,2,3,3,4,4,5,5,6,6,7,7,8,8,9,9,11,11,12,12,13,13,14,14,15,15,16,16,17,17,18,18,19,19,20,20,21,21,22,22,23,23,25,25,26,26,27,27,28,28,29,29,33,33,34,34,35,35,37,37,39,39,40,40,41,41,42,42,43,43,44,44,47,47,48,48,50,50,51,51,52,52,53,53,54,54],"right_children":[2,4,6,8,10,12,14,16,18,20,-1,22,24,26,28,30,32,34,36,38,40,42,44,46,-1,48,50,52,54,56,-1,-1,-1,58,60,62,-1,64,-1,66,68,70,72,74,76,-1,-1,78,80,-1,82,84,86,88,90,-1,-1,-1,-1,-1,-1,-1,-1,-1,-1,-1,-1,-1,-1,-1,-1,-1,-1,-1,-1,-1,-1,-1,-1,-1,-1,-1,-1,-1,-1,-1,-1,-1,-1,-1,-1],"split_conditions":[6.5219097E-9,1E-2,2.8245625E-8,2.6E-1,1E0,5.0880626E-2,1.2987013E-2,7.6E-1,1E0,4.0784314E-1,-2.4375851E-1,2.4275997E-7,1E0,1E0,3E-2,1E0,7.3E-1,1E0,1E0,2.6E-1,9.69512E-8,2.3261478E-7,9.322271E-5,5.2837573E-2,-2.6712367E-1,3E-2,6.542297E-7,7.02858E-6,1.8644542E-4,7.7E-1,3.4834015E-1,5.9129883E-2,3.0892035E-1,1E0,1E-1,1.5686275E-2,2.3128702E-1,9E-2,2.911866E-1,4.6E-1,1.1741683E-2,1E0,7.9E-1,1E0,8.9411765E-1,-8.34456E-2,3.0200428E-1,9.6E-1,1.2297423E-6,9.4358873E-1,2.3255814E-2,1.3370771E-4,7.843138E-3,1E-2,1.627907E-1,-2.921143E-1,2.5701773E-1,2.9183415E-1,-1.3731292E-1,-2.7670276E-1,-2.9443953E-2,-3.5454205E-1,1.5358762E-1,2.0757496E-1,-5.479055E-1,3.0601162E-1,1.4628659E-1,-5.949127E-2,1.1657526E-1,-1.7510256E-1,1.4270969E-1,4.8611093E0,3.8988066E-1,-3.2299533E-1,3.211015E-1,2.906866E-1,8.7905014E-1,-3.0174804E-1,1.1718143E-1,-2.4327941E-1,4.372204E-1,-2.575268E-1,2.055833E-1,7.470056E-2,3.0356854E-1,1.2440606E-1,-3.7472257E-1,1.9979823E-1,-2.8965753E-1,-3.0337602E-1,-4.5268487E-2],"split_indices":[1,26,2,32,42,20,6,31,112,28,0,1,85,101,31,115,36,59,61,21,2,1,0,19,0,36,2,2,0,34,0,0,0,8,35,28,0,26,0,30,19,90,30,38,28,0,0,31,1,0,13,9,29,35,13,0,0,0,0,0,0,0,0,0,0,0,0,0,0,0,0,0,0,0,0,0,0,0,0,0,0,0,0,0,0,0,0,0,0,0,0],"split_type":[0,0,0,0,0,0,0,0,0,0,0,0,0,0,0,0,0,0,0,0,0,0,0,0,0,0,0,0,0,0,0,0,0,0,0,0,0,0,0,0,0,0,0,0,0,0,0,0,0,0,0,0,0,0,0,0,0,0,0,0,0,0,0,0,0,0,0,0,0,0,0,0,0,0,0,0,0,0,0,0,0,0,0,0,0,0,0,0,0,0,0],"sum_hessian":[2.509688E3,1.0843724E3,1.4253157E3,2.859955E2,7.983769E2,4.3137827E2,9.939374E2,1.390052E2,1.4699033E2,7.9620703E2,2.1698124E0,3.651699E2,6.620839E1,8.933675E2,1.0056994E2,1.1961221E2,1.939298E1,1.3405833E2,1.2931994E1,1.8636932E1,7.775701E2,2.331371E2,1.3203278E2,5.947609E1,6.732298E0,8.6989075E2,2.347671E1,7.362533E1,2.6944614E1,1.0882468E2,1.0787541E1,1.0124993E0,1.8380482E1,1.2898824E2,5.070092E0,1.1191125E1,1.7408692E0,4.4327016E0,1.420423E1,7.7531793E2,2.2521744E0,2.0573827E2,2.7398836E1,1.18322845E2,1.3709928E1,1.0236497E0,5.8452442E1,8.3488245E2,3.5008293E1,2.025061E0,2.1451649E1,6.837185E1,5.2534723E0,8.320264E0,1.862435E1,9.5083855E1,1.374082E1,1.2648252E2,2.505719E0,1.1086389E0,3.9614537E0,1.0188131E1,1.0029936E0,2.0893488E0,2.3433526E0,7.71694E2,3.6239593E0,1.2152231E0,1.0369513E0,1.5421236E2,5.15259E1,1.2054873E0,2.6193348E1,1.0966973E2,8.653118E0,1.2037511E1,1.672417E0,8.3378644E2,1.096042E0,2.927674E1,5.7315545E0,1.6831242E1,4.620408E0,4.4279705E1,2.4092148E1,1.0811567E0,4.1723156E0,5.963169E0,2.357095E0,1.7459284E1,1.1650656E0],"tree_param":{"num_deleted":"0","num_feature":"122","num_nodes":"91","size_leaf_vector":"1"}},{"base_weights":[-1.2544869E-2,7.1593505E-1,-6.418931E-1,1.9696859E-1,9.912262E-1,-7.0450294E-1,7.926699E-1,-1.0099355E-1,1.0728647E0,1.0023639E0,-8.836008E-2,-3.9216286E-1,-9.518069E-1,-2.5007734E-1,2.9687384E-1,7.1345025E-1,-5.69523E-1,4.7984457E-1,9.952953E-1,4.6912742E-1,1.008596E0,-2.2263138E-1,1.7543873E-1,-1.275305E-1,-6.543078E-1,-9.870192E-1,1.1623001E0,8.133192E-1,-3.2290104E-1,-7.073881E-1,4.4437763E-1,2.1672025E-2,3.0257246E-1,2.6653165E-1,-4.0957442E-1,3.0319655E-1,4.5083653E-2,-2.3774916E-1,8.538736E-1,-7.485316E-1,1.11368485E-1,-1.0061418E0,-4.1843918E-1,-2.7447292E-1,1.5129081E0,2.7704936E-1,-3.0108708E-1,-2.4458084E-1,1.8406935E-1,-4.7540955E-2,2.896717E-1,-2.8382218E-2,-2.7032444E-1,4.686049E-1,-1.466704E-1,-1.5991363E-1,-2.793604E-1,6.0026354E-1,-1.385453E-1,-3.033479E-1,2.8724322E-2,1.618836E-1,-3.9479905E-1,7.6406044E-1,2.6005784E-1],"categories":[],"categories_nodes":[],"categories_segments":[],"categories_sizes":[],"default_left":[0,0,0,0,0,0,0,0,0,0,0,0,0,0,0,0,0,0,0,0,0,0,0,0,0,0,0,0,0,0,0,0,0,0,0,0,0,0,0,0,0,0,0,0,0,0,0,0,0,0,0,0,0,0,0,0,0,0,0,0,0,0,0,0,0],"id":12,"left_children":[1,3,5,7,9,11,13,15,17,19,21,23,25,-1,-1,27,29,-1,31,33,35,-1,-1,37,39,41,43,45,-1,47,49,-1,-1,-1,-1,-1,-1,51,53,55,57,59,61,-1,63,-1,-1,-1,-1,-1,-1,-1,-1,-1,-1,-1,-1,-1,-1,-1,-1,-1,-1,-1,-1],"loss_changes":[9.012693E2,1.2997968E2,9.528607E1,8.285556E1,7.2442017E0,7.772629E1,1.5099085E1,9.103157E1,1.699089E0,1.4844971E0,3.5126197E0,3.1029648E1,4.31026E1,0E0,0E0,1.6457264E1,2.1465961E1,0E0,8.2035065E-1,7.885668E0,8.7579346E-1,0E0,0E0,2.447953E1,1.6320656E1,5.6121826E0,8.443145E0,1.7569813E1,0E0,1.9537926E1,6.0370264E0,0E0,0E0,0E0,0E0,0E0,0E0,1.914729E1,2.2517927E1,7.3971634E0,2.8576286E1,3.0610962E0,1.7708138E1,0E0,3.583477E0,0E0,0E0,0E0,0E0,0E0,0E0,0E0,0E0,0E0,0E0,0E0,0E0,0E0,0E0,0E0,0E0,0E0,0E0,0E0,0E0],"parents":[2147483647,0,0,1,1,2,2,3,3,4,4,5,5,6,6,7,7,8,8,9,9,10,10,11,11,12,12,15,15,16,16,18,18,19,19,20,20,23,23,24,24,25,25,26,26,27,27,29,29,30,30,37,37,38,38,39,39,40,40,41,41,42,42,44,44],"right_children":[2,4,6,8,10,12,14,16,18,20,22,24,26,-1,-1,28,30,-1,32,34,36,-1,-1,38,40,42,44,46,-1,48,50,-1,-1,-1,-1,-1,-1,52,54,56,58,60,62,-1,64,-1,-1,-1,-1,-1,-1,-1,-1,-1,-1,-1,-1,-1,-1,-1,-1,-1,-1,-1,-1],"split_conditions":[2.17397E-8,1.5655577E-2,1E0,1E0,7.4E-1,6.039216E-1,5.652322E-8,3E-2,3.4E-1,2.627451E-1,5E-2,3E-2,1.1143045E-5,-2.5007734E-1,2.9687384E-1,1E0,3.1E-1,4.7984457E-1,1.1764706E-2,2.509804E-1,1E0,-2.2263138E-1,1.7543873E-1,9.5553277E-4,3E-2,1E0,1E-2,1E0,-3.2290104E-1,9.8E-1,3.9138943E-3,2.1672025E-2,3.0257246E-1,2.6653165E-1,-4.0957442E-1,3.0319655E-1,4.5083653E-2,9.784736E-3,3.5856676E-6,2.4275997E-7,5E-2,1E0,9.843137E-1,-2.7447292E-1,2.5974026E-2,2.7704936E-1,-3.0108708E-1,-2.4458084E-1,1.8406935E-1,-4.7540955E-2,2.896717E-1,-2.8382218E-2,-2.7032444E-1,4.686049E-1,-1.466704E-1,-1.5991363E-1,-2.793604E-1,6.0026354E-1,-1.385453E-1,-3.033479E-1,2.8724322E-2,1.618836E-1,-3.9479905E-1,7.6406044E-1,2.6005784E-1],"split_indices":[1,19,56,38,30,29,1,30,32,28,32,31,1,0,0,101,35,0,29,28,8,0,0,0,36,90,36,45,0,31,19,0,0,0,0,0,0,19,2,1,30,10,28,0,6,0,0,0,0,0,0,0,0,0,0,0,0,0,0,0,0,0,0,0,0],"split_type":[0,0,0,0,0,0,0,0,0,0,0,0,0,0,0,0,0,0,0,0,0,0,0,0,0,0,0,0,0,0,0,0,0,0,0,0,0,0,0,0,0,0,0,0,0,0,0,0,0,0,0,0,0,0,0,0,0,0,0,0,0,0,0,0,0],"sum_hessian":[1.9638276E3,9.101629E2,1.0536648E3,3.1605872E2,5.9410425E2,1.0100895E3,4.3575287E1,2.3649321E2,7.9565506E1,5.8810846E2,5.9957657E0,4.4749628E2,5.625932E2,4.3570848E0,3.92182E1,8.617413E1,1.5031908E2,7.6961937E0,7.1869316E1,7.675183E0,5.804333E2,2.9897768E0,3.0059888E0,2.2343132E2,2.2406494E2,5.5390063E2,8.692576E0,8.213654E1,4.037586E0,1.3259216E2,1.772691E1,1.1106191E0,7.07587E1,6.6668997E0,1.0082834E0,5.7886707E2,1.566231E0,2.015532E2,2.1878115E1,1.995329E2,2.453204E1,5.3513336E2,1.8767286E1,1.0228878E0,7.669689E0,7.79042E1,4.2323494E0,1.2293496E2,9.6572E0,8.542292E0,9.184618E0,1.6671918E2,3.4834038E1,1.421712E1,7.6609945E0,9.334117E1,1.06191734E2,5.1300416E0,1.9401999E1,5.3278955E2,2.3438263E0,9.270632E0,9.496654E0,1.8179508E0,5.851738E0],"tree_param":{"num_deleted":"0","num_feature":"122","num_nodes":"65","size_leaf_vector":"1"}}]},"name":"gbtree"},"learner_model_param":{"base_score":"4.6547222E-1","boost_from_average":"1","num_class":"0","num_feature":"122","num_target":"1"},"objective":{"name":"binary:logistic","reg_loss_param":{"scale_pos_weight":"1"}}},"version":[2,0,3]}